tree
version=v4
num_class=4
num_tree_per_iteration=4
label_index=0
max_feature_idx=49
objective=multiclass num_class:4
feature_names=pca_0 pca_1 pca_2 pca_3 pca_4 pca_5 pca_6 pca_7 pca_8 pca_9 pca_10 pca_11 pca_12 pca_13 pca_14 pca_15 pca_16 pca_17 pca_18 pca_19 pca_20 pca_21 pca_22 pca_23 pca_24 pca_25 pca_26 pca_27 pca_28 pca_29 pca_30 pca_31 pca_32 pca_33 pca_34 pca_35 pca_36 pca_37 pca_38 pca_39 pca_40 pca_41 pca_42 pca_43 pca_44 pca_45 pca_46 pca_47 pca_48 pca_49
feature_infos=[-0.36689254676742239:0.73156082728893757] [-0.3700022579345707:0.7808104300129578] [-0.30631916569451467:0.45424038536635969] [-0.37745413939679878:0.61834157645832921] [-0.52073957564380002:0.45042930360924349] [-0.53692958054520923:0.57053598862407562] [-0.30308169057004108:0.46909524592466439] [-0.53278174592262983:0.42203624257093159] [-0.2498841813933434:0.35266787122879512] [-0.38816638768714878:0.36205552614617981] [-0.34018860376446991:0.35413850776473099] [-0.30678060493117432:0.37859033514158857] [-0.3759747185597907:0.3945411749895979] [-0.32751592995406081:0.36417578002047479] [-0.37974549265599089:0.44840519478938867] [-0.32014785073139401:0.29487100121044929] [-0.39912115820227129:0.29555293448869541] [-0.31982635564105028:0.28863891195233088] [-0.2588554793466204:0.40363036960741028] [-0.28945889440524919:0.27644927267744912] [-0.30796014935349808:0.37576913474436491] [-0.24462432936857101:0.54272429152286128] [-0.2176468964129939:0.3954888210029967] [-0.26335567334315629:0.43356512333123348] [-0.35767625977448358:0.36717265485381417] [-0.29235436274209631:0.33354487570111968] [-0.2563657665888468:0.37437221832449769] [-0.26787363055263042:0.43173169764696429] [-0.22821663892546479:0.32849107682972301] [-0.27802656625288302:0.32571418635409988] [-0.28339540901310761:0.25712695584784079] [-0.26516369331947431:0.27269289641958971] [-0.32409313947938578:0.27181466709103241] [-0.26077816073819637:0.24602888289003061] [-0.2129179262738391:0.24115784937219351] [-0.2322699756939707:0.24925653089545821] [-0.22348996421471479:0.31835768129759318] [-0.20167971069912799:0.4772634723081437] [-0.24295257553353819:0.2968799919671618] [-0.2267343813092639:0.28066699825132058] [-0.2280549495687651:0.25534207525695612] [-0.1945141588556088:0.23328409571608619] [-0.29043588699868822:0.22469350195330329] [-0.28494335052649639:0.25409166125056148] [-0.24026805489770409:0.27968711790890882] [-0.25681779104400509:0.30573550575688391] [-0.21412505526994011:0.2266226825642759] [-0.26591401855116698:0.27970907896047159] [-0.229282194578074:0.24307552690151321] [-0.19145413371583209:0.2638872930256474]
tree_sizes=1393 1224 979 1229 1838 1531 982 1837 1840 1531 1091 1949 1842 1629 991 1961 1738 1412 1087 1740 1858 1524 894 1842 1732 1954 775 1848 1754 1627 984 1738 1860 1838 1095 1851 1527 1424 777 1638 1852 1956 1407 1642 1312 1631 890 1741 1311 1317 888 1644 1208 1842 885 1323 1102 1744 1201 1745 2069 1631 776 1535 1532 1642 883 1219 2076 1522 787 2060 1220 1530 1424 1746 1972 1746 885 1539 1529 1532 993 1967 1212 1743 893 995 1415 1200 896 1754 1321 1963 890 1843 1646 1209 1522 1517 1324 1095 1208 1102 1327 1959 1101 1743 1323 1643 1203 998 1752 1956 1209 1956 1442 1107 890 1208 1529 1632 1317 1527 1540 1744 1103 1420 1541 1971 1001 1108 1649 1533 1301 787 1647 1531 1326 1524 1652 1314 1643 895 1426 1217 1211 1003 2299 1740 1630 1433 1540 1644 1315 1546 1444 1740 1102 1853 1658 1214 902 1849 1429 2288 905 1313 1541 1209 1215 1542 2095 1320 1109 1008 1877 1647 1004 1535 1671 2075 903 1547 1780 1005 902 1655 2310 1760 1220 1211 1219 2179 1223 1545 2100 2284 1328 1435 2211 1329 1327 1216 1866 1437 1221 1874 1760 1862 1437 2201 1232 1652 1422 1541 1118 1767 1229 1121 1998 2201 1547 1964 1455 1436 1648 1332 1541 2083 1330 1647 2002 1437 1012 1551 2009 1438 1436 1873 1988 1872 1543 1974 1542 1435 1647 2090 1014 1670 1649 1334 1227 1324 1331 1671 1891 2083 1007 1546 1232 1776 1430 1118 1564 1886 1113 1553 2221 1868 1551 1007 1784 1219 1653 1757 1337 1668 1228 1550 1549 2091 1434 1547 1325 2004 1331 1007 1110 2312 1757 1979 1778 1559 1428 1764 2336 1887 1327 2221 1560 1651 1338 1982 2112 1981 1014 1667 1340 2001 1014 1776 1787 1769 1439 2091 1346 1661 1330 1228 1241 1663 1556 1875 1900 1768 1871 1232 1656 1775 1437 1550 1459 2115 1452 1231 1454 1767 1340 1663 1018 1877 1654 1990 1129 1339 1666 1779 1344 2010 1458 1892 904 1571 1556 1234 1347 1661 1345 2213 1668 2214 1018 1994 1019 2000 1775 1126 1236 1350 1567 2002 1240 1677 1345 1792 2012 1554 1446 1132 1349 1455 1128 2212 1894 1892 1355 1025 1685 1665 1133 1245 1682 1790 1237 1467 1683 1904 1672 1678

Tree=0
num_leaves=13
num_cat=0
split_feature=31 44 11 46 0 1 26 42 28 18 42 45
split_gain=46.3927 36.5399 24.7669 22.8254 30.6207 13.7425 13.5654 9.02211 8.53736 3.33471 8.22857 2.11073
threshold=0.036012272124509859 0.051551322384107152 -0.087641867127950093 0.010720491233368901 -0.016177469655002798 0.027341154878044404 0.018570981403193351 -0.0017437056055351998 0.017591153478789954 0.021340257995232852 -0.0041773757925502994 -0.017226089128631893
decision_type=2 2 2 2 2 2 2 2 2 2 2 2
left_child=3 2 -2 9 7 11 -6 -5 -3 -1 -11 -4
right_child=1 8 5 4 6 -7 -8 -9 -10 10 -12 -13
leaf_value=-1.4862943611198907 -1.1772034520289816 -1.1178733084883117 -1.4062943611198906 -1.3565646313901609 -1.3462943611198905 -1.2662943611198907 -1.1210769698155427 -1.4862943611198907 -1.276770551596081 -1.3262943611198905 -1.4862943611198907 -1.4779610277865571
leaf_weight=37.75 5.5000000000000027 9.4999999999999982 6.2500000000000062 9.25 4.9999999999999982 4.9999999999999991 5.75 12.75 5.2499999999999991 4.9999999999999991 8.9999999999999982 11.999999999999998
leaf_count=151 22 38 25 37 20 20 23 51 21 20 36 48
internal_value=-1.38629 -1.30239 -1.36803 -1.42949 -1.36416 -1.41318 -1.22583 -1.43175 -1.17443 -1.47084 -1.42915 -1.45342
internal_weight=128 43.5 28.75 84.5 32.75 23.25 10.75 22 14.75 51.75 14 18.25
internal_count=512 174 115 338 131 93 43 88 59 207 56 73
is_linear=0
shrinkage=1


Tree=1
num_leaves=11
num_cat=0
split_feature=31 4 44 44 24 25 11 10 6 2
split_gain=18.3424 20.5562 19.2465 17.7035 16.5562 8.74891 3.77811 2.10644 1.75555 0.156989
threshold=0.052838272911826259 -0.11397919607892953 -0.040495822606819047 0.076110050027858561 -0.049741640829500743 0.051605218392481604 -0.0065827193383809993 -0.04932838551741784 0.054975964872389559 -0.14090618788333442
decision_type=2 2 2 2 2 2 2 2 2 2
left_child=1 7 6 4 -4 8 -3 -1 9 -2
right_child=5 2 3 -5 -6 -7 -8 -9 -10 -11
leaf_value=-1.4101038849294143 -1.4662943611198904 -1.4862943611198907 -1.1862943611198906 -1.4510002434728317 -1.3239414199434201 -1.3262943611198905 -1.3819465350329341 -1.4862943611198907 -1.4222943611198906 -1.4862943611198904
leaf_weight=5.2500000000000027 5.0000000000000027 8.7499999999999982 10.999999999999998 8.4999999999999982 42.5 4.9999999999999991 5.7499999999999991 11.749999999999998 6.2499999999999991 18.250000000000004
leaf_count=21 20 35 44 34 170 20 23 47 25 73
internal_value=-1.38629 -1.3633 -1.3412 -1.31694 -1.29564 -1.44861 -1.44492 -1.46276 -1.46935 -1.48199
internal_weight=128 93.5 76.5 62 53.5 34.5 14.5 17 29.5 23.25
internal_count=512 374 306 248 214 138 58 68 118 93
is_linear=0
shrinkage=1


Tree=2
num_leaves=9
num_cat=0
split_feature=19 44 40 25 2 31 37 21
split_gain=30.7042 20.5689 18.7842 11.6387 12.5526 9.13586 5.19701 4.9
threshold=-0.099347403317008684 -0.05665423889488224 0.023748557426943453 -0.10441108053510528 0.32797328390313302 -0.088319489344025989 -0.010038746329053399 0.014529475119202752
decision_type=2 2 2 2 2 2 2 2
left_child=6 2 -2 -3 5 -5 -1 -6
right_child=1 3 -4 4 7 -7 -8 -9
leaf_value=-1.2949900132938037 -1.140839815665345 -1.2662943611198907 -1.3993378393807601 -1.3123813176416297 -1.3862943611198906 -1.442636544010746 -1.1590216338471633 -1.2462943611198907
leaf_weight=5.75 5.4999999999999982 4.9999999999999991 5.75 5.7499999999999991 4.9999999999999982 84.75 5.4999999999999982 5
leaf_count=23 22 20 23 23 20 339 22 20
internal_value=-1.38629 -1.4015 -1.27296 -1.4152 -1.42261 -1.43436 -1.22852 -1.31629
internal_weight=128 116.75 11.25 105.5 100.5 90.5 11.25 10
internal_count=512 467 45 422 402 362 45 40
is_linear=0
shrinkage=1


Tree=3
num_leaves=11
num_cat=0
split_feature=32 1 38 41 23 3 27 24 37 41
split_gain=25.1796 23.4185 21.0551 23.493 15.95 12.3196 6.20264 3.06903 2.28104 1.96923
threshold=0.015802532715695105 0.028680059618738204 0.099723273874978965 -0.046018625238970649 0.022773273607490704 0.12675067989544439 -0.077316936834465139 0.049506195620427407 -0.0032935161435303493 -1.0000000180025095e-35
decision_type=2 2 2 2 2 2 2 2 2 2
left_child=5 2 3 -2 -5 6 -1 8 -8 -3
right_child=1 9 -4 4 -6 -7 7 -9 -10 -11
leaf_value=-1.3612943611198907 -1.4434372182627477 -1.4062943611198906 -1.4862943611198907 -1.1862943611198906 -1.331192320303564 -1.3221917970173265 -1.4407247408667261 -1.3987943611198905 -1.4862943611198907 -1.4862943611198907
leaf_weight=7.9999999999999991 6.9999999999999991 5.0000000000000009 5.4999999999999991 20 12.249999999999998 9.7499999999999982 19.749999999999996 7.9999999999999991 24.750000000000004 7.9999999999999973
leaf_count=32 28 20 22 80 49 39 79 32 99 32
internal_value=-1.38629 -1.33738 -1.30305 -1.27738 -1.24133 -1.42651 -1.44332 -1.45582 -1.46607 -1.45553
internal_weight=128 57.75 44.75 39.25 32.25 70.25 60.5 52.5 44.5 13
internal_count=512 231 179 157 129 281 242 210 178 52
is_linear=0
shrinkage=1


Tree=4
num_leaves=16
num_cat=0
split_feature=31 28 44 11 46 0 6 26 34 18 42 13 11 4 24
split_gain=36.8027 25.1964 26.9337 21.6471 18.6288 25.1946 18.5765 8.89971 8.02854 3.3349 7.23908 2.96748 0.155611 0.000736439 0.000466006
threshold=0.032298380744242405 0.04366707817576946 0.051551322384107152 -0.064983154352122832 0.010720491233368901 -0.016177469655002798 -0.0095361262444054479 0.018570981403193351 0.028729039038299351 0.021340257995232852 -0.0041773757925502994 0.0012198191319465503 0.063035619917651373 -0.1690268199576653 -0.049741640829500743
decision_type=2 2 2 2 2 2 2 2 2 2 2 2 2 2 2
left_child=4 2 3 -2 9 8 -5 -7 12 13 -11 -4 -6 -1 -15
right_child=1 -3 11 6 5 7 -8 -9 -10 10 -12 -13 -14 14 -16
leaf_value=-0.098239326950305142 0.19458977581193473 -0.1008388187936996 0.24661639075195829 -0.090160982544439078 -0.098563567834126384 0.035856631798090864 0.11549358076013938 0.21195264798657601 0.04527580007415126 0.054993549166728842 -0.096810213793335931 0.15390102278370507 -0.076320608516128152 -0.096113596669389276 -0.097102545011620911
leaf_weight=4.8147042989730826 6.6418768763542166 7.3289065510034552 8.7416223585605604 12.04888127744198 9.4332103580236453 5.1081417948007566 6.911894544959071 6.5500591993331909 6.2053691744804373 5.1193429678678504 8.1303722709417325 5.7050590217113486 4.7184940278530112 5.9376099705696097 24.122793614864353
leaf_count=20 24 29 31 50 39 20 27 23 25 20 35 20 20 26 103
internal_value=-0.000234656 0.069635 0.100831 0.0392296 -0.0415411 0.0175706 -0.0151924 0.134795 -0.0495619 -0.0808654 -0.0381572 0.210003 -0.0911473 -0.0970911 -0.0969072
internal_weight=127.518 47.3782 40.0493 25.6027 80.1401 32.0153 18.9608 11.6582 20.3571 48.1248 13.2497 14.4467 14.1517 34.8751 30.0604
internal_count=512 181 152 101 331 127 77 43 84 204 55 51 59 149 129
is_linear=0
shrinkage=0.1


Tree=5
num_leaves=13
num_cat=0
split_feature=31 4 20 15 6 25 17 10 6 26 28 30
split_gain=15.2851 17.2725 15.2954 12.993 16.6911 7.70514 5.03361 1.99509 1.78567 0.177436 0.000873535 0.000376577
threshold=0.052838272911826259 -0.11397919607892953 -0.05878606364900129 -0.097107457678798179 -0.025261998049021146 0.051605218392481604 0.0074757157847655008 -0.04932838551741784 0.054975964872389559 -0.061033140157552443 -0.0065001157417430488 0.0054045967734409513
decision_type=2 2 2 2 2 2 2 2 2 2 2 2
left_child=1 7 6 -4 -5 8 -3 -1 9 -2 -9 -11
right_child=5 2 3 4 -6 -7 -8 10 -10 11 -12 -13
leaf_value=-0.022106394391560327 -0.075291287470890519 -0.099625611967575967 -0.070854490106403212 0.027169750727206034 0.13645376940906648 0.053825740335577604 0.014992477719086844 -0.096269707687776443 -0.03091052406094303 -0.096932436897672114 -0.098073546347692525 -0.097887127680597097
leaf_weight=5.1765934228897121 4.6469093263149324 8.6558692902326566 6.5951862633228293 30.34271444380283 25.909266874194149 5.1472010612487784 6.8745926767587653 4.5869346410036096 5.9704005420207968 10.264297440648081 6.4733392745256397 6.9153253436088553
leaf_count=21 20 35 26 119 99 20 27 20 25 44 27 29
internal_value=0.000102923 0.0205292 0.0399762 0.0619363 0.0775052 -0.0585607 -0.0488897 -0.0733443 -0.0793715 -0.0926275 -0.0973255 -0.0973167
internal_weight=127.559 94.6145 78.3776 62.8472 56.252 32.9441 15.5305 16.2369 27.7969 21.8265 11.0603 17.1796
internal_count=512 374 306 244 218 138 62 68 118 93 47 73
is_linear=0
shrinkage=0.1


Tree=6
num_leaves=8
num_cat=0
split_feature=19 44 31 2 12 40 21
split_gain=24.0097 16.3441 9.62288 10.1462 9.76783 4.33497 3.68793
threshold=-0.099347403317008684 -0.063768478014077631 -0.088319489344025989 0.32797328390313302 0.086123946013384009 0.021265222348644253 0.014529475119202752
decision_type=2 2 2 2 2 2 2
left_child=5 -2 -3 4 -4 -1 -5
right_child=1 2 3 6 -6 -7 -8
leaf_value=0.18991978598594142 0.10935337045690761 0.089952683371068765 -0.054271383551721619 -0.0016665173467435273 0.067442804780541502 0.070259809666559786 0.11712437878896959
leaf_weight=6.454123988747595 9.831796467304228 6.7625795900821677 81.149450957775116 5.0550409108400327 7.1766050010919562 5.7024702429771423 5.4109120666980743
leaf_count=24 37 26 335 20 29 21 20
internal_value=0.000118512 -0.0139644 -0.0254508 -0.0333504 -0.044382 0.133789 0.0597485
internal_weight=127.543 115.386 105.555 98.792 88.3261 12.1566 10.466
internal_count=512 467 430 404 364 45 40
is_linear=0
shrinkage=0.1


Tree=7
num_leaves=16
num_cat=0
split_feature=32 1 17 24 32 33 45 14 34 35 21 47 49 3 43
split_gain=20.6573 18.5155 16.5814 13.3179 10.556 10.3722 7.97268 7.05836 9.62393 4.91525 2.74601 2.6325 2.07546 2.00146 1.47075
threshold=0.015802532715695105 0.028680059618738204 -0.019451919925498197 -0.0035322667132082499 0.052270575448315253 0.045612682629941954 0.0084222520783348021 0.0067930683928092003 0.018797228738581206 -1.0000000180025095e-35 0.017890729759193601 -0.013655062330130549 0.023434369275339002 -0.020124582134175294 0.0087399699485045026
decision_type=2 2 2 2 2 2 2 2 2 2 2 2 2 2 2
left_child=5 2 3 11 6 7 -4 12 10 -6 -9 -2 14 -3 -1
right_child=1 13 4 -5 9 -7 -8 8 -10 -11 -12 -13 -14 -15 -16
leaf_value=-0.098031338193492953 -0.098796641837247845 -0.097554319993078883 -0.0062807837536125663 0.1008709854208954 0.1276595429946443 0.073670928552236781 0.15021856219944704 -0.08789424384192894 0.085538405552973262 0.2534051534589698 -0.0011139390942711232 -0.005383729029440374 -0.016221117574602911 -0.015047290480789103 -0.048883732954433448
leaf_weight=25.333404824137688 7.2656013816595078 7.5706426203250885 7.2737226188182849 8.7828708887100202 6.0551479458808899 7.4820499122142783 5.8921104669570923 9.0229386091232318 7.5253990292549124 6.3880044519901258 6.1193131506443015 5.1589887887239474 4.8522416800260535 4.8069400042295438 8.0153300166130048
leaf_count=106 30 32 28 33 23 30 22 37 30 23 25 20 20 20 33
internal_value=1.31636e-05 0.0432583 0.0720156 0.00661773 0.126173 -0.0374386 0.0637574 -0.0510964 -0.00688957 0.192214 -0.0528244 -0.0600094 -0.0773278 -0.065512 -0.0862188
internal_weight=127.545 59.194 46.8164 21.2075 25.609 68.3507 13.1658 60.8686 22.6677 12.4432 15.1423 12.4246 38.201 12.3776 33.3487
internal_count=512 231 179 83 96 281 50 251 92 46 62 50 159 52 139
is_linear=0
shrinkage=0.1


Tree=8
num_leaves=16
num_cat=0
split_feature=31 28 44 46 0 11 6 42 42 18 42 38 4 24 45
split_gain=29.782 20.9665 19.2095 17.8306 18.7611 16.6312 14.2454 8.00181 6.36086 3.18714 6.54412 1.40963 0.00233031 0.00135063 0.000657133
threshold=0.036012272124509859 0.04366707817576946 0.051551322384107152 0.010720491233368901 -0.016177469655002798 -0.064983154352122832 -0.0095361262444054479 -0.0017437056055351998 0.010700407162168551 0.021340257995232852 -0.0041773757925502994 -0.033596923759433746 -0.1690268199576653 0.0034799460333184502 0.017869366872166455
decision_type=2 2 2 2 2 2 2 2 2 2 2 2 2 2 2
left_child=3 2 5 9 7 -2 -7 -5 -6 12 -11 -4 -1 -9 -14
right_child=1 -3 11 4 8 6 -8 13 -10 10 -12 -13 14 -15 -16
leaf_value=-0.096773044613023107 0.1626750258018608 -0.098170643436887181 0.14047593064911004 0.029248684934272552 0.042487283602647662 -0.087151012741331052 0.10200415902175715 -0.094815023220260142 0.18640345909304604 0.050160969439585951 -0.094355498636683799 0.20206720882408377 -0.093947810988066371 -0.097009699355831411 -0.09492265521591417
leaf_weight=4.642885521054267 7.2098515629768363 6.9108174741268149 6.1763542890548697 9.2514192759990692 6.0126843601465207 10.932768404483797 6.2617941796779659 6.5923230648040771 6.2774977833032608 5.2368270754814148 7.8011399805545789 9.3279140889644605 16.493455380201343 4.8797692060470581 11.906722813844679
leaf_count=20 24 29 20 37 22 48 23 30 21 20 36 30 77 21 54
internal_value=-0.000570493 0.0626415 0.0904887 -0.0379884 0.0181066 0.0351899 -0.0182658 -0.0399471 0.115996 -0.0781763 -0.036309 0.177531 -0.0946961 -0.0957486 -0.0943565
internal_weight=125.914 46.8195 39.9087 79.0947 33.0137 24.4044 17.1946 20.7235 12.2902 46.081 13.038 15.5043 33.0431 11.4721 28.4002
internal_count=512 174 145 338 131 95 71 88 43 207 56 50 151 51 131
is_linear=0
shrinkage=0.1


Tree=9
num_leaves=13
num_cat=0
split_feature=31 4 44 44 23 25 30 10 6 37 13 39
split_gain=12.6527 14.6541 13.2731 12.6522 12.5233 6.85202 3.67451 1.91098 1.70892 0.184236 0.00218627 0.00114395
threshold=0.052838272911826259 -0.11397919607892953 -0.040495822606819047 0.076110050027858561 -0.11580126228487998 0.051605218392481604 0.040366011666621307 -0.04932838551741784 0.054975964872389559 -0.019917733909727297 0.0012198191319465503 -0.011411163579049347
decision_type=2 2 2 2 2 2 2 2 2 2 2 2
left_child=1 7 6 4 -4 8 -3 -1 9 -2 -9 -11
right_child=5 2 3 -5 -6 -7 -8 10 -10 11 -12 -13
leaf_value=-0.020475737194862807 -0.071369023709075496 -0.097680823217493315 -0.067673879414714075 -0.062152770795476001 0.086251482841318061 0.049214463240529721 0.0074166226004239201 -0.093698651398371954 -0.028147511223912298 -0.095829809479947584 -0.096597655790636852 -0.094022294249998084
leaf_weight=5.1030591875314704 4.3396481424570164 8.0021662265062314 5.883072242140762 8.1919587403535825 52.048779040575035 5.2586667835712424 5.6937467604875556 5.0964683145284635 5.8184782713651648 5.1997130960226139 5.3136176764965057 10.72035424411296
leaf_count=21 20 34 23 34 191 20 24 24 25 23 23 50
internal_value=0.000207924 0.0183281 0.0356124 0.0541711 0.0706201 -0.0549171 -0.0539891 -0.0706049 -0.0759152 -0.0896338 -0.0951784 -0.0946127
internal_weight=126.67 95.3329 79.8197 66.1238 57.9319 31.3369 13.6959 15.5131 26.0782 20.2597 10.4101 15.9201
internal_count=512 374 306 248 214 138 58 68 118 93 47 73
is_linear=0
shrinkage=0.1


Tree=10
num_leaves=9
num_cat=0
split_feature=19 44 40 25 2 39 36 21
split_gain=18.6879 13.5434 12.0246 9.40915 8.74448 8.30389 3.75751 2.86676
threshold=-0.099347403317008684 -0.05665423889488224 0.023748557426943453 -0.10050814795419234 0.32797328390313302 -0.090573738140599089 -0.009563579484958647 0.014529475119202752
decision_type=2 2 2 2 2 2 2 2
left_child=6 2 -2 -3 5 -5 -1 -6
right_child=1 3 -4 4 7 -7 -8 -9
leaf_value=0.16453065011554177 0.17992728269357938 0.096711963460019645 -0.017170672206063529 0.071923861268510622 -0.0022474763410475214 -0.051687347590979885 0.056485532996925505 0.10103960722710897
leaf_weight=6.9175198078155518 6.4966879189014417 6.0077664554119101 5.9121333360671997 5.8379972428083411 5.0728024989366514 78.645811602473259 6.0198402106761915 5.7140883207321167
leaf_count=24 22 23 23 24 20 335 21 20
internal_value=0.000374833 -0.0125847 0.0860207 -0.024666 -0.0323201 -0.0431456 0.114257 0.0524663
internal_weight=126.625 113.687 12.4088 101.278 95.2707 84.4838 12.9374 10.7869
internal_count=512 467 45 422 399 359 45 40
is_linear=0
shrinkage=0.1


Tree=11
num_leaves=17
num_cat=0
split_feature=32 33 15 2 33 45 24 14 34 14 30 21 25 16 8 6
split_gain=16.9955 16.973 18.0246 14.3043 12.2112 10.0305 7.51301 6.85309 9.94221 5.53335 4.63829 2.26668 2.0802 1.82927 0.168003 0.00175669
threshold=0.0096037539147624026 0.025956440026373703 -0.024243194693682246 0.019339303329579203 0.045612682629941954 -0.010092827132309948 0.016266763965084054 0.0067930683928092003 0.018797228738581206 0.014214720614386452 0.092858006856066516 0.017890729759193601 -0.037815196256732846 0.018393243668822352 0.20484333437227289 0.0049092094648529013
decision_type=2 2 2 2 2 2 2 2 2 2 2 2 2 2 2 2
left_child=4 2 6 5 7 -4 -2 12 11 -5 13 -9 -1 15 -14 -3
right_child=1 10 3 9 -6 -7 -8 8 -10 -11 -12 -13 14 -15 -16 -17
leaf_value=-0.026273229503201947 -0.088224399441840753 -0.097584570609749885 0.045613738837285388 -0.06243456756541832 0.088669497106759018 0.19753267493986573 0.064596033487293467 -0.096206994724832753 0.084374633666075144 0.083948933850812882 0.041545337012834832 -0.013124365555867094 -0.095841959992053902 -0.021835317645151717 -0.074573567524262765 -0.094868561279523214
leaf_weight=5.7059229016304007 8.1736727356910688 5.1752644181251544 5.9981360286474219 5.0214851200580579 6.7914793491363517 15.779703184962274 5.3049128502607337 7.5225993543863314 7.4309506565332404 5.3160497397184372 4.9191995412111273 5.8276127874851227 23.670398324728016 5.0226944684982291 4.4052736908197394 4.4112412631511688
leaf_count=25 33 22 23 20 26 54 20 33 28 20 20 24 105 20 19 20
internal_value=-1.55567e-05 0.0355655 0.0689768 0.10971 -0.0377819 0.155691 -0.0280772 -0.0535214 -0.00833575 0.0128428 -0.0424416 -0.0599399 -0.0813179 -0.0707216 -0.0925048 -0.0963348
internal_weight=126.477 65.1224 45.594 32.1154 61.3542 21.7778 13.4786 54.5628 20.7812 10.3375 19.5284 13.3502 33.7816 14.6092 28.0757 9.58651
internal_count=512 252 170 117 260 77 53 234 85 40 82 57 149 62 124 42
is_linear=0
shrinkage=0.1


Tree=12
num_leaves=16
num_cat=0
split_feature=31 28 46 49 25 39 48 48 6 32 18 42 6 4 15
split_gain=24.4069 17.3617 15.8119 15.6324 15.0059 12.4981 12.36 7.26936 4.72863 4.21241 3.07428 5.89203 2.12924 0.00358714 0.000937382
threshold=0.036012272124509859 0.04366707817576946 0.010720491233368901 0.022464230288221504 -0.0015705577104308498 0.0028855493312339507 -0.0043553765590429996 0.013955188470843953 -0.061544653067061444 0.018079946493166604 0.021340257995232852 -0.0041773757925502994 0.079431436860144616 -0.1690268199576653 -0.069979870015695542
decision_type=2 2 2 2 2 2 2 2 2 2 2 2 2 2 2
left_child=2 3 10 5 12 7 -6 -2 -8 -7 13 -12 -4 -1 -15
right_child=1 -3 4 -5 6 9 8 -9 -10 -11 11 -13 -14 14 -16
leaf_value=-0.095182806273055379 -0.066587754708952271 -0.095939828268269717 -0.095983812347241654 -0.069107232972279664 -0.032153934886191032 0.16959197078958793 0.18986254180528148 0.096624432525001747 0.066822877139927045 0.069757014762862654 0.045833267733279094 -0.092400879873460254 -0.010105000655560789 -0.093440493761302479 -0.091842170552367541
leaf_weight=4.4414027929306057 5.3148422390222532 6.5107587277889243 8.6069252192974073 5.9984107464551917 7.3062319010496148 18.24247777462006 6.5853742361068717 5.6087520569562912 5.9417846500873575 5.5007366538047782 5.3418498635292053 7.293250307440756 4.3442347049713126 4.4085929989814785 21.882212474942207
leaf_count=20 22 29 39 25 30 58 23 20 21 20 20 36 18 21 110
internal_value=-0.000848895 0.0556715 -0.0358632 0.0799454 0.0165448 0.105736 0.0712152 0.017214 0.131503 0.146463 -0.0754823 -0.0339584 -0.0671773 -0.0925542 -0.0921102
internal_weight=123.328 47.176 76.1519 40.6652 32.7846 34.6668 19.8334 10.9236 12.5272 23.7432 43.3673 12.6351 12.9512 30.7322 26.2908
internal_count=512 174 338 145 131 120 74 42 44 78 207 56 57 151 131
is_linear=0
shrinkage=0.1


Tree=13
num_leaves=14
num_cat=0
split_feature=31 4 24 6 40 4 20 25 10 14 44 13 15
split_gain=10.4629 12.4328 11.3326 9.69439 12.731 9.12244 8.96633 6.49891 1.82855 1.63823 0.243895 0.00311644 0.00198282
threshold=0.052838272911826259 -0.11397919607892953 -0.049741640829500743 -0.023427999017131496 -0.006455830021365099 0.029871260218611903 -0.023668122973076296 0.053390785455522657 -0.04932838551741784 0.028929409779319154 0.069284211416731564 0.0012198191319465503 0.051941184449879961
decision_type=2 2 2 2 2 2 2 2 2 2 2 2 2
left_child=1 8 5 6 -5 -3 -4 9 -1 10 12 -10 -2
right_child=7 2 3 4 -6 -7 -8 -9 11 -11 -12 -13 -14
leaf_value=-0.019020359958106879 -0.092272791705705043 0.16126710096041186 -0.098223979713818077 -0.020152588889542813 0.11014535091467872 0.0071587569263994056 0.011779611426831253 0.0508176482202558 -0.091363778326080614 -0.026818863040719607 -0.064836318375443888 -0.094943527316605908 -0.094689087105139014
leaf_weight=5.0383725464344016 9.658827170729646 10.597109571099283 11.023322716355322 13.255296036601068 17.266927376389503 6.0250110924243918 22.603256970643997 5.1334288567304602 4.6811757385730726 5.8772350102663031 3.8325728476047507 5.0614506751298904 5.2377438992261878
leaf_count=21 48 37 47 52 61 22 87 19 24 27 20 23 24
internal_value=0.000269957 0.0163918 0.0318226 0.0127554 0.0535591 0.105408 -0.0242813 -0.0515284 -0.06793 -0.0728801 -0.0873342 -0.0932235 -0.0931224
internal_weight=125.292 95.5519 80.7709 64.1488 30.5222 16.6221 33.6266 29.7398 14.781 24.6064 18.7291 9.74263 14.8966
internal_count=512 374 306 247 113 59 134 138 68 119 92 47 72
is_linear=0
shrinkage=0.1


Tree=14
num_leaves=8
num_cat=0
split_feature=19 44 12 40 4 37 42
split_gain=14.9345 11.0124 7.46283 8.06619 6.20334 6.03127 3.49677
threshold=-0.099347403317008684 -0.063768478014077631 0.10740755623399786 -0.010851080025947448 -0.1690268199576653 0.030963422339640004 -1.0000000180025095e-35
decision_type=2 2 2 2 2 2 2
left_child=6 -2 3 5 -5 -3 -1
right_child=1 2 -4 4 -6 -7 -8
leaf_value=0.049453603110921646 0.085836722474068428 -0.080841853851386841 0.076270345095077713 0.082519352267900595 -0.017672089564675444 0.035761965957967275 0.151306830830749
leaf_weight=6.7850685715675354 10.555008873343466 32.467250913381569 7.2472945600748053 7.0664094239473263 49.244615584611907 5.1378919780254355 6.6981910169124586
leaf_count=23 37 144 28 28 209 21 22
internal_value=0.000636395 -0.011362 -0.0215034 -0.0290484 -0.00509917 -0.0649106 0.100052
internal_weight=125.202 111.718 101.163 93.9162 56.311 37.6051 13.4833
internal_count=512 467 430 402 237 165 45
is_linear=0
shrinkage=0.1


Tree=15
num_leaves=17
num_cat=0
split_feature=3 40 39 46 46 30 48 44 40 26 4 14 0 34 36 41
split_gain=14.6172 12.8016 13.5609 17.1792 12.3642 9.96844 8.898 8.03677 6.49344 3.60023 0.716388 0.591264 0.210073 0.0104809 0.00478058 0.00269023
threshold=-0.069441893792626178 0.012615778354068153 0.031689601050435202 -0.057718501065311942 -0.016784492110406248 1.0000000180025095e-35 -0.030040295174838545 0.067960982521931015 0.062117349048073207 -0.019912865597124994 -0.045462651383546847 -0.004716870956779899 -0.28422258730613598 0.0048330006298047011 -0.018293671445581795 0.017679418957119653
decision_type=2 2 2 2 2 2 2 2 2 2 2 2 2 2 2 2
left_child=9 2 3 -2 6 -5 -3 11 -8 -1 -6 -4 -11 15 -12 -14
right_child=1 4 7 5 10 -7 8 -9 -10 12 14 -13 13 -15 -16 -17
leaf_value=-0.0066613980261244314 -0.097467222593110484 0.13623885995757865 -0.051802512834081299 0.13634541477651846 -0.049730472079675951 0.035553647548655164 0.05588114955200596 0.063544271094591986 -0.09817163372602547 -0.070109615448183671 -0.093215988312989106 -0.098453524725014618 -0.095444603776368819 -0.099364367628922076 -0.097063806894000931 -0.092141477472437089
leaf_weight=7.2210747897624996 5.2332047075033179 5.5406008213758495 4.4855705797672281 23.947839096188545 4.3775546401739147 16.624002277851105 5.6083260774612409 5.9283329099416724 5.3426114469766617 4.2369871288538041 4.7859930098056802 6.8898116201162347 4.3917144685983605 4.5815923959016791 9.9243397712707484 5.6222967654466629
leaf_count=29 23 19 20 84 20 66 22 24 23 20 23 29 20 19 43 28
internal_value=-7.06163e-05 0.0175179 0.0445608 0.0730521 -0.0304494 0.0950468 0.0329716 -0.0308592 -0.0192763 -0.0666937 -0.0852438 -0.080058 -0.0897122 -0.0954026 -0.0958119 -0.0935901
internal_weight=124.742 98.6882 63.1088 45.805 35.5794 40.5718 16.4915 17.3037 10.9509 26.0537 19.0879 11.3754 18.8326 14.5956 14.7103 10.014
internal_count=512 396 246 173 150 150 64 73 45 116 86 49 87 67 66 48
is_linear=0
shrinkage=0.1


Tree=16
num_leaves=15
num_cat=0
split_feature=31 28 19 46 25 28 49 39 47 18 26 42 4 22
split_gain=20.3149 14.1115 13.2515 12.7235 14.8764 10.5016 8.66436 7.90992 4.22676 3.05409 5.77438 0.637173 0.00261518 0.000538018
threshold=0.032298380744242405 0.04366707817576946 0.088739309488320914 0.010720491233368901 -0.0015705577104308498 1.0000000180025095e-35 0.014069329124673001 0.0028855493312339507 -0.0040470352253832989 0.021340257995232852 -0.0057384910184125493 0.016299811801123155 -0.1690268199576653 -0.057642051199514543
decision_type=2 2 2 2 2 2 2 2 2 2 2 2 2 2
left_child=3 2 6 9 11 8 7 -2 -6 12 -11 -5 -1 -14
right_child=1 -3 -4 4 5 -7 -8 -9 -10 10 -12 -13 13 -15
leaf_value=-0.092893960101475256 0.031469128994773568 -0.093828871690253488 -0.080527657300624764 -0.09508629043866744 0.059399852050168095 -0.049004817279809432 -0.028704090362400882 0.14057926752883509 0.16871558462925215 0.044383719542806864 -0.094799400457875729 -0.045387074391005831 -0.089265352087258776 -0.090417205275318407
leaf_weight=4.1268129497766521 9.3540147095918638 6.09837782382965 5.2213290929794303 7.5856894701719302 7.5120671242475536 5.7818467617034903 5.3250625431537619 22.935011714696884 6.6844318360090247 5.557653397321701 6.4288562238216382 3.9089307636022568 5.1736426949501064 18.75648233294487
leaf_count=20 34 29 23 35 26 24 22 73 23 24 31 19 29 100
internal_value=-0.00115322 0.0484948 0.0687571 -0.035124 0.0124531 0.0646022 0.0894797 0.10897 0.110871 -0.0725181 -0.0302659 -0.0781853 -0.0905691 -0.0901682
internal_weight=120.45 48.9338 42.8354 71.5164 31.473 19.9783 37.6141 32.289 14.1965 40.0434 11.9865 11.4946 28.0569 23.9301
internal_count=512 181 152 331 127 73 129 107 49 204 55 54 149 129
is_linear=0
shrinkage=0.1


Tree=17
num_leaves=12
num_cat=0
split_feature=16 37 33 0 49 28 20 42 12 36 1
split_gain=9.646 10.5923 10.4856 9.5266 8.45888 8.50498 6.23186 5.70366 12.9175 0.684668 0.0180624
threshold=0.038157664988402111 -0.036828016619218293 -0.049484259070124791 -0.2596586441343039 -0.076585623961871699 0.0074090405721741011 0.005688861722559801 -0.0038326330151682493 -0.018184367454536797 0.049872776630937511 -0.0072298026774273993
decision_type=2 2 2 2 2 2 2 2 2 2 2
left_child=1 2 -1 -3 -5 -6 -4 10 -9 -10 -2
right_child=7 3 6 4 5 -7 -8 8 9 -11 -12
leaf_value=-0.025217557030657641 -0.1022470874552347 0.09356058351710192 0.052622729590058405 0.092235948867891729 -0.05707329392813644 0.0251857092421479 0.18618521841103977 0.088318307125375362 -0.099628427456301349 -0.048323506206076547 -0.094637551779420861
leaf_weight=6.5295747369527843 5.0974298268556586 9.1658082008361799 6.1992003172636023 6.4991971105337134 36.013461723923683 19.307838559150696 8.0036565959453565 7.6522145569324538 6.972434058785435 4.1489221602678299 8.0381663292646426
leaf_count=27 20 31 24 25 160 79 28 29 31 20 38
internal_value=0.000310544 0.0167863 0.0796685 -0.00157928 -0.0156852 -0.0283639 0.127888 -0.0470467 -0.011682 -0.0804887 -0.0975905
internal_weight=123.628 91.7187 20.7324 70.9863 61.8205 55.3213 14.2029 31.9092 18.7736 11.1214 13.1356
internal_count=512 374 79 295 264 239 52 138 80 51 58
is_linear=0
shrinkage=0.1


Tree=18
num_leaves=9
num_cat=0
split_feature=28 38 48 44 37 2 4 21
split_gain=12.7543 11.398 12.2722 9.89042 6.9879 7.97385 7.5578 2.32265
threshold=0.040899786256692154 -0.052441761449902292 0.014730041204674251 -0.065780021675362885 0.077427937913652808 0.32797328390313302 -0.14924385674299381 0.014529475119202752
decision_type=2 2 2 2 2 2 2 2
left_child=3 -2 -3 -1 5 6 -5 -7
right_child=1 2 -4 4 -6 7 -8 -9
leaf_value=0.079846802720082044 -0.051504455182367626 0.025057128959954697 0.19670282402139774 0.054585789564407718 0.072943709359290759 -0.0026493105391455149 -0.054689234905554565 0.089498503436311494
leaf_weight=10.084444567561148 5.8062180280685451 8.3002322167158145 8.3616356551647169 6.9959304332733145 6.8078469187021247 5.0774088799953443 66.419059887528419 5.9300811886787415
leaf_count=34 23 32 29 28 27 20 299 20
internal_value=0.000987569 0.069151 0.111196 -0.0141287 -0.0245166 -0.0323758 -0.0442761 0.0469936
internal_weight=123.783 22.4681 16.6619 101.315 91.2303 84.4225 73.415 11.0075
internal_count=512 84 61 428 394 367 327 40
is_linear=0
shrinkage=0.1


Tree=19
num_leaves=15
num_cat=0
split_feature=3 11 15 1 43 0 11 32 41 8 5 15 45 6
split_gain=12.6314 10.3228 9.43088 13.4761 9.95159 7.93098 3.62649 3.42927 2.60186 1.71746 0.61971 0.184559 0.00546063 0.00579492
threshold=-0.069441893792626178 -0.070777736016585893 -0.024243194693682246 0.028680059618738204 -0.052208185336867448 -0.06911793067863084 0.028626227511097804 0.036364476070681606 0.0073838621542022011 -0.021034395941735045 0.15216800779285103 -0.024775934719386397 -0.063579608377646438 0.070826665168277417
decision_type=2 2 2 2 2 2 2 2 2 2 2 2 2 2
left_child=7 8 5 4 -4 -3 -7 10 11 -5 12 -2 -1 -14
right_child=1 2 3 9 -6 6 -8 -9 -10 -11 -12 -13 13 -15
leaf_value=-0.089643716240792023 -0.069012672549195672 0.093720704543161684 -0.040670580508328946 -0.094863529747643491 0.092268170991274837 -0.096213104464853941 -0.0047449109577824512 0.005667211106613862 -0.0091972010930853124 -0.010168143575281499 -0.04874100567096834 -0.096407449812255519 -0.096613229365600004 -0.092079012019412765
leaf_weight=3.7885965704917934 4.1163732111454019 4.5291518121957806 6.5118500590324393 5.132734626531601 41.630927965044975 9.5634261369705218 7.9278278052806845 5.5106895565986624 7.9833781421184531 4.4875079393386823 4.0026539713144293 6.1087515652179727 4.9294465631246585 6.582600861787796
leaf_count=21 20 18 27 24 150 43 31 23 37 19 17 27 22 33
internal_value=-0.00017695 0.0159618 0.0314672 0.0526951 0.0742867 -0.024217 -0.0547556 -0.0639098 -0.0519777 -0.0553561 -0.0837725 -0.085379 -0.0929368 -0.0940206
internal_weight=122.806 97.9919 79.7834 57.763 48.1428 22.0204 17.4913 24.814 18.2085 9.62024 19.3033 10.2251 15.3006 11.512
internal_count=512 396 312 220 177 92 74 116 84 43 93 47 76 55
is_linear=0
shrinkage=0.1


Tree=20
num_leaves=16
num_cat=0
split_feature=31 28 14 10 25 28 8 31 44 22 3 42 18 25 11
split_gain=17.3698 13.1261 9.70045 11.1041 9.35761 9.05609 8.01737 8.91308 7.6583 4.95543 0.184004 0.0164063 0.0268801 0.00144235 0.000840845
threshold=0.0049651515504707004 0.040899786256692154 0.0067930683928092003 0.083829692612942916 0.0062792088484322503 0.0074090405721741011 0.099627795758382057 0.077699759387796954 0.019024107359748254 -0.045219621715082592 0.086628477368568171 -0.0017437056055351998 -0.0048290500801597995 -0.014491286368186947 -0.011114976237880247
decision_type=2 2 2 2 2 2 2 2 2 2 2 2 2 2 2
left_child=4 2 3 9 11 8 7 -4 -6 -2 -7 12 -1 14 -13
right_child=1 -3 6 -5 5 10 -8 -9 -10 -11 -12 13 -14 -15 -16
leaf_value=-0.089961479269900627 0.15583166766938006 -0.092457665246168969 -0.074377967094682057 -0.060548865583645639 0.099206114403237539 -0.091472747006807187 0.10797439260442983 0.074405602440857907 -0.036344678461580314 0.07221378198313759 -0.063294407601474853 -0.089712839958908136 -0.10050167310810952 -0.090935680022127402 -0.087811471497901541
leaf_weight=5.2305991500616074 11.481830090284346 7.5289641469717017 13.586843967437749 4.7359657883644095 9.4144406467676216 6.275192588567732 5.3577921837568274 5.7221446037292472 7.4792585521936408 18.517650261521343 3.6742427200078964 4.6757425218820563 4.5020998269319552 4.5749858766794196 4.6279348134994498
leaf_count=29 36 38 66 21 35 33 19 19 33 66 20 26 19 24 28
internal_value=-0.00146562 0.0319327 0.0476987 0.0817524 -0.0457707 -0.00538049 -0.000255317 -0.0302865 0.0391944 0.104217 -0.0810667 -0.0916893 -0.0948371 -0.0894819 -0.088767
internal_weight=117.386 66.9312 59.4022 34.7354 50.4545 26.8431 24.6668 19.309 16.8937 29.9995 9.94944 23.6114 9.7327 13.8787 9.30368
internal_count=512 265 227 123 247 121 104 85 68 102 53 126 48 78 54
is_linear=0
shrinkage=0.1


Tree=21
num_leaves=13
num_cat=0
split_feature=16 45 41 48 46 1 41 42 12 42 23 1
split_gain=8.40278 9.19191 11.165 9.22028 13.0823 11.0388 5.28579 5.23105 11.0439 0.767446 0.17582 0.0172074
threshold=0.038157664988402111 0.06489172429998756 -0.063582348682569886 -0.022688283939842544 -0.023911485156744749 0.027341154878044404 -0.093148950878882933 -0.0038326330151682493 -0.018184367454536797 0.054583446386690403 -0.0017428337192139497 -0.0080317308987147996
decision_type=2 2 2 2 2 2 2 2 2 2 2 2
left_child=1 2 6 5 -5 -4 -1 11 -9 -10 -3 -2
right_child=7 10 3 4 -6 -7 -8 8 9 -11 -12 -13
leaf_value=0.034675128052970502 -0.10018992305249955 -0.095464293150718707 0.12828819445501125 -0.085928847990965201 0.022777342378167351 -0.02537924532485232 0.16846667737338683 0.078071616701122282 -0.098200417725219091 -0.041850077171730969 -0.066499861877581418 -0.092482043745440418
leaf_weight=4.9836769551038742 4.6672398298978806 4.9036685079336166 12.030611470341684 16.287312671542168 34.565184399485588 7.6455745697021475 7.2467900514602643 7.9138057231903121 6.8072542399167979 3.74735426902771 3.6599554121494275 7.6331539303064364
leaf_count=20 19 23 45 73 137 33 24 29 32 19 19 39
internal_value=0.000313218 0.0155409 0.0257464 0.0104511 -0.0120397 0.0685776 0.113949 -0.0448831 -0.0112332 -0.0781935 -0.0830854 -0.0954067
internal_weight=122.092 91.3228 82.7592 70.5287 50.8525 19.6762 12.2305 30.7688 18.4684 10.5546 8.56362 12.3004
internal_count=512 374 332 288 210 78 44 138 80 51 42 58
is_linear=0
shrinkage=0.1


Tree=22
num_leaves=7
num_cat=0
split_feature=35 25 19 27 47 5
split_gain=15.3424 9.39839 8.60053 5.37362 6.8587 3.7243
threshold=-0.10242945300739213 -0.11152331623635624 -0.11437310512153857 -0.0044923039279275495 -0.00081245142709729997 -0.031212769674439495
decision_type=2 2 2 2 2 2
left_child=-1 -2 -3 5 -5 -4
right_child=1 2 3 4 -6 -7
leaf_value=0.16924073232579676 0.095567252260969182 0.085054044375332649 -0.0057019387019820967 -0.03445787324881748 0.032908706080324278 -0.071539004278764126
leaf_weight=5.2085055112838736 8.4270593076944333 8.101933151483534 12.579026758670805 32.748920574784279 28.064250364899642 27.109499618411057
leaf_count=18 29 26 54 146 117 122
internal_value=0.00130836 -0.00616555 -0.0140595 -0.0220495 -0.00336934 -0.0506724
internal_weight=122.239 117.031 108.604 100.502 60.8132 39.6885
internal_count=512 494 465 439 263 176
is_linear=0
shrinkage=0.1


Tree=23
num_leaves=16
num_cat=0
split_feature=32 33 10 33 18 29 14 34 30 47 21 25 16 3 6
split_gain=10.9867 10.2249 11.0294 8.76195 8.70128 6.15806 5.30543 6.65633 4.14523 2.50209 2.14149 1.97846 1.63403 0.190819 0.0012526
threshold=0.0096037539147624026 0.025956440026373703 -0.017216390709979146 0.045612682629941954 -0.0084609211042108983 -0.015904462755599598 0.0067930683928092003 0.018797228738581206 0.092858006856066516 -0.013465156411937599 0.017890729759193601 -0.037815196256732846 0.018393243668822352 -0.15943825701595307 -0.025261998049021146
decision_type=2 2 2 2 2 2 2 2 2 2 2 2 2 2 2
left_child=3 2 5 6 9 -2 11 10 12 -4 -8 -1 14 -13 -3
right_child=1 8 4 -5 -6 -7 7 -9 -10 -11 -12 13 -14 -15 -16
leaf_value=-0.019913193531310006 -0.068339797438716418 -0.093358482751606145 0.14855056804709585 0.07030889906179659 0.011661007713935443 0.054804898895027709 -0.093050441005592871 0.063380471708853525 0.043248205489162604 0.071630833095208207 -0.0089088630389396219 -0.067267661028353409 -0.019070927601905246 -0.091461351347538106 -0.09090395756767343
leaf_weight=5.3092417120933559 9.1001026630401629 4.1109393537044525 14.33233827352524 7.2202597111463538 9.9324700832366926 7.333123490214347 6.6044724285602587 7.889879345893859 4.810469761490821 5.9989472329616573 5.5807043015956879 3.9049929529428509 4.8470303118228903 19.7372225522995 4.2066070139408129
leaf_count=25 38 20 45 26 39 28 33 28 20 20 24 20 20 104 22
internal_value=-0.000216105 0.0278949 0.0525644 -0.0325379 0.0883766 -0.013388 -0.0476844 -0.00817943 -0.0361936 0.125855 -0.0545143 -0.0750773 -0.0652224 -0.0874653 -0.0921171
internal_weight=120.919 64.672 46.697 56.2468 30.2638 16.4332 49.0265 20.0751 17.975 20.3313 12.1852 28.9515 13.1646 23.6422 8.31755
internal_count=512 252 170 260 104 66 234 85 82 65 57 149 62 124 42
is_linear=0
shrinkage=0.1


Tree=24
num_leaves=15
num_cat=0
split_feature=31 46 49 0 39 42 35 42 25 30 0 31 18 24
split_gain=14.9679 11.4993 10.6394 9.29802 8.66895 6.11889 5.86742 3.8286 3.69189 2.94595 2.05869 1.40737 0.011813 0.00289671
threshold=0.036012272124509859 0.010720491233368901 0.021990830731981301 -0.016177469655002798 0.0028855493312339507 -0.0017437056055351998 0.018528691375806452 0.010700407162168551 0.038251947675859758 0.10989714937529337 -0.24954716122032677 0.055381931217867657 0.026651378875254303 0.0034799460333184502
decision_type=2 2 2 2 2 2 2 2 2 2 2 2 2 2
left_child=1 9 4 5 6 -3 -2 -5 11 10 -1 -6 -12 -7
right_child=2 3 -4 7 8 13 -8 -9 -10 -11 12 -13 -14 -15
leaf_value=-0.023331048790081736 -0.063463539524640775 0.025230870746230524 -0.069723213575620571 0.021701074496858732 0.076096580848784526 -0.088483577658567403 0.074992757766955812 0.13045508920140877 0.024385791128021278 0.019616788001427354 -0.088457536188661007 0.1328435686521855 -0.093265174804166129 -0.092040665217460266
leaf_weight=5.6336346119642249 7.2902719080448133 9.1524247229099309 7.1584334075450888 6.2735361754894239 6.3066695779562059 5.1053731292486191 5.2755758613348007 6.6879163980484009 5.6883948743343344 3.3719805330038062 21.047163963317875 14.235109716653822 6.7500131428241721 4.150597408413887
leaf_count=30 32 37 35 22 22 30 20 21 21 16 126 44 35 21
internal_value=-0.00181648 -0.0315499 0.0422925 0.0129351 0.0629611 -0.0327482 -0.00533482 0.0778165 0.0956789 -0.0694679 -0.0784534 0.115421 -0.089625 -0.0900787
internal_weight=114.127 68.1726 45.9545 31.3698 38.796 18.4084 12.5658 12.9615 26.2302 36.8028 33.4308 20.5418 27.7972 9.25597
internal_count=512 338 174 131 139 88 52 43 87 207 191 66 161 51
is_linear=0
shrinkage=0.1


Tree=25
num_leaves=17
num_cat=0
split_feature=30 14 48 31 29 18 11 45 41 7 11 37 3 21 19 31
split_gain=7.20995 12.4984 14.4065 8.98147 8.19133 9.00677 7.48599 7.09562 6.96888 7.41734 6.12564 5.31949 0.9811 0.25181 0.035238 0.00591376
threshold=1.0000000180025095e-35 -0.016105009103880349 -0.020219843157897498 0.0028415956678113003 -0.027450333569911046 -0.031910370201428596 -0.027534546892598797 -0.0027737288912469495 -0.028681394563565294 0.056940912343010706 0.074752405959818663 -0.013550096265748348 -0.0068898760036444993 0.079159266178320711 0.025702774757083002 0.025023948398624853
decision_type=2 2 2 2 2 2 2 2 2 2 2 2 2 2 2 2
left_child=1 13 -3 6 -5 12 11 -7 -4 -10 -8 -2 -6 14 15 -1
right_child=3 2 8 4 5 7 10 -9 9 -11 -12 -13 -14 -15 -16 -17
leaf_value=-0.093717921000801438 0.066689156796249691 0.10667010564838969 0.070740708959155713 -0.096706345412017863 -0.027530504279131965 -0.015600931985384248 0.15646000570773241 0.11802332574719998 -0.088087719673555442 0.047306029699558882 0.032043603808076138 -0.067190799529729714 -0.093275152670554459 -0.067352514039238254 -0.10136646368749572 -0.08850630799427861
leaf_weight=5.7199506163597125 6.4035311788320541 10.695442199707029 5.4855057448148754 8.3869451433420164 4.2841606587171555 6.8630708456039455 10.236387118697168 9.4399272352457029 16.674478076398376 5.3426935225725165 6.4512551873922339 5.5315038263797778 4.8275507092475909 3.9174959212541571 6.4506894499063483 3.5154712945222855
leaf_count=28 24 39 22 39 20 30 33 35 84 18 24 22 25 21 27 21
internal_value=0.000327373 -0.0251218 0.00819039 0.023892 -0.0110126 0.0172666 0.0651122 0.0617715 -0.0301071 -0.055233 0.108362 0.00464011 -0.0623632 -0.0900314 -0.0956953 -0.0917341
internal_weight=120.226 57.8017 38.1981 62.4243 33.8017 25.4147 28.6227 16.303 27.5027 22.0172 16.6876 11.935 9.11171 19.6036 15.6861 9.23542
internal_count=512 260 163 252 149 110 103 65 124 102 57 46 45 97 76 49
is_linear=0
shrinkage=0.1


Tree=26
num_leaves=6
num_cat=0
split_feature=35 29 25 19 2
split_gain=12.1268 8.29691 6.33379 6.14515 5.93017
threshold=-0.10242945300739213 -0.09229802671370739 -0.11152331623635624 -0.11437310512153857 0.32797328390313302
decision_type=2 2 2 2 2
left_child=-1 -2 -3 -4 -5
right_child=1 2 3 4 -6
leaf_value=0.1472372583891603 0.096375564401771974 0.075443073320534945 0.067362062965938677 -0.035572576404304515 0.042233465462458736
leaf_weight=5.4562492668628684 7.4984168708324423 7.6248638778924933 7.5954155623912802 81.36811351776123 11.136532977223395
leaf_count=18 28 26 24 376 40
internal_value=0.00156426 -0.00533389 -0.0124136 -0.0191058 -0.0262056
internal_weight=120.68 115.223 107.725 100.1 92.5046
internal_count=512 494 466 440 416
is_linear=0
shrinkage=0.1


Tree=27
num_leaves=16
num_cat=0
split_feature=3 40 17 39 46 26 48 2 40 26 4 1 34 8 14
split_gain=9.99785 8.22982 10.1316 11.6918 9.45085 7.72452 6.52153 6.24186 5.42532 3.26179 0.814061 0.259097 0.0116153 0.00613924 0.00385732
threshold=-0.069441893792626178 0.012615778354068153 -0.075864090842255191 0.024207814755988304 -0.016784492110406248 -0.019912865597124994 -0.034578098254306341 0.21169717988376421 0.062117349048073207 -0.019912865597124994 -0.045462651383546847 -0.27891717576107095 0.0048330006298047011 0.018744789531850502 -0.0061169945175490494
decision_type=2 2 2 2 2 2 2 2 2 2 2 2 2 2 2
left_child=9 2 -2 7 6 -5 -3 -4 -8 -1 -6 -11 14 -12 -13
right_child=1 4 3 5 10 -7 8 -9 -10 11 13 12 -14 -15 -16
leaf_value=-0.0019170741101260441 -0.082160791921496668 0.1150817834071553 0.09765878570693616 0.055085718793635823 -0.039034796940577189 -0.077037666230395929 0.048516549262839964 -0.010618645109577551 -0.095138801483121344 -0.060206415302822142 -0.090495609148014938 -0.086899336286658316 -0.095715383205172366 -0.095130244528745134 -0.091197478104798502
leaf_weight=6.8020805865526226 6.6016685813665381 5.5774610340595272 32.2000492811203 7.996787145733836 3.7444429099559811 9.9069593697786313 5.6280109435319883 6.378654032945632 4.9334581941366196 3.4013984650373468 8.4245626479387266 3.8782450407743445 4.08261263370514 4.3256776183843604 4.5231311470270112
leaf_count=29 30 18 113 32 20 46 22 25 24 19 46 25 19 20 24
internal_value=-0.000175865 0.0139711 0.0350609 0.0487618 -0.0267975 -0.0180242 0.0276073 0.0797561 -0.0185875 -0.0598617 -0.080029 -0.0846734 -0.0913397 -0.092068 -0.0892134
internal_weight=118.405 95.7177 63.0841 56.4824 32.6336 17.9037 16.1389 38.5787 10.5615 22.6875 16.4947 15.8854 12.484 12.7502 8.40138
internal_count=512 396 246 216 150 78 64 138 46 116 86 87 68 66 49
is_linear=0
shrinkage=0.1


Tree=28
num_leaves=15
num_cat=0
split_feature=31 28 25 1 10 31 28 19 33 19 42 18 25 11
split_gain=13.0605 10.3769 8.0916 7.57191 9.25848 10.3815 6.77538 6.09676 3.25085 0.21078 0.0151008 0.0222088 0.00153026 0.000743824
threshold=0.0049651515504707004 0.040899786256692154 0.0062792088484322503 0.086832944269288712 0.074366856139404455 0.056565914550798908 0.0074090405721741011 0.017859626817242302 -0.021654009530017997 0.031411411764701656 -0.0017437056055351998 -0.0048290500801597995 -0.014491286368186947 -0.011114976237880247
decision_type=2 2 2 2 2 2 2 2 2 2 2 2 2 2
left_child=2 3 10 4 5 -2 7 8 -4 -8 11 -1 13 -12
right_child=1 -3 6 -5 -6 -7 9 -9 -10 -11 12 -13 -14 -15
leaf_value=-0.087606371648156184 -0.016525236509116723 -0.090276524805900066 0.12066385549386144 0.11367773044972312 -0.093357179496407525 0.085378343503545173 -0.088684921173392828 -0.051410532085969518 0.0088461832558710072 -0.056251747983905288 -0.087075358327033073 -0.097726337697420756 -0.088514321032653928 -0.085140341179742396
leaf_weight=4.5700044482946396 18.080468103289604 6.7743531167507163 6.5731231123209026 11.371039494872091 5.9937010407447806 22.361901208758354 5.4490190595388395 5.6778407841920844 4.3014737814664867 3.1691899001598358 4.0697872936725616 4.1267365068197268 4.0738392621278745 3.8809142336249352
leaf_count=29 82 38 23 38 32 75 33 25 20 20 26 19 24 28
internal_value=-0.00216634 0.0268181 -0.0429547 0.0405403 0.0226307 0.0398206 -0.00485602 0.0325807 0.0764341 -0.0767582 -0.0892342 -0.0924085 -0.0869383 -0.0861308
internal_weight=110.473 64.5815 45.8919 57.8071 46.4361 40.4424 25.1706 16.5524 10.8746 8.61821 20.7213 8.69674 12.0245 7.9507
internal_count=512 265 247 227 189 157 121 68 43 53 126 48 78 54
is_linear=0
shrinkage=0.1


Tree=29
num_leaves=14
num_cat=0
split_feature=16 45 37 42 4 13 17 35 32 30 6 45 43
split_gain=6.69349 7.20127 7.67232 5.33094 5.18926 7.39524 4.9482 4.61983 4.40866 3.43405 1.09985 0.165635 0.01571
threshold=0.038157664988402111 0.06489172429998756 -0.036828016619218293 0.025575492004623706 -0.012955513131038149 0.076356871641599114 0.0095437262497933013 0.008914422788450652 -0.034567084146304695 -0.0018214024512589499 0.076003317085989022 0.08537938503201202 -0.0011796251157646998
decision_type=2 2 2 2 2 2 2 2 2 2 2 2 2
left_child=1 2 3 9 6 -6 -4 8 -2 -1 12 -3 -9
right_child=7 11 4 -5 5 -7 -8 10 -10 -11 -12 -13 -14
leaf_value=0.051678906361854009 -0.072557907484048445 -0.063460893042457056 0.020359618617971056 -0.0049196801744054277 0.042427977355048635 -0.069474564346557965 -0.083607135794604159 -0.088638128139206351 0.048164250923160491 0.1526949094316834 -0.029585837853375086 -0.093057146364734222 -0.095849465760869071
leaf_weight=5.7678933292627343 4.8546594753861418 3.5389699935913077 8.0498506128788012 5.6121221333742133 36.412533313035965 7.0489776879549018 10.613562330603598 5.6591616272926322 8.0266128331422824 8.0791782289743423 3.6053416579961768 4.0606085658073425 6.4802138209342948
leaf_count=21 26 21 35 24 136 34 56 35 31 26 15 21 31
internal_value=0.000325213 0.0138296 0.0225022 0.077296 0.00533937 0.0242786 -0.0387645 -0.0417473 0.00266681 0.110617 -0.0780839 -0.0792748 -0.0924877
internal_weight=117.81 89.1837 81.5841 19.4592 62.1249 43.4615 18.6634 28.626 12.8813 13.8471 15.7447 7.59958 12.1394
internal_count=512 374 332 71 261 170 91 138 57 47 81 42 66
is_linear=0
shrinkage=0.1


Tree=30
num_leaves=8
num_cat=0
split_feature=40 44 15 4 20 4 21
split_gain=9.87112 9.44124 5.77033 5.96074 5.75597 5.01565 4.99419
threshold=0.12616369929606078 -0.065780021675362885 -0.1467566986431755 0.081779739737565915 -0.022378137728984747 -0.1690268199576653 0.042808090384634005
decision_type=2 2 2 2 2 2 2
left_child=1 4 -3 5 -1 -4 -5
right_child=-2 2 3 6 -6 -7 -8
leaf_value=0.0011283594173224043 0.13817846440126413 0.085631578516703971 0.041519915161696314 -0.0018912101081233733 0.13492610404126504 -0.042160853207095325 0.11056298210748312
leaf_weight=5.7499355226755142 5.0944592952728263 5.4468308836221686 8.0208210349082929 14.906206160783769 7.2940242737531644 66.948502212762833 5.3726761639118186
leaf_count=21 18 20 30 65 23 315 20
internal_value=0.00199652 -0.00410317 -0.0144727 -0.0201973 0.0759464 -0.033208 0.0279023
internal_weight=118.833 113.739 100.695 95.2482 13.044 74.9693 20.2789
internal_count=512 494 450 430 44 345 85
is_linear=0
shrinkage=0.1


Tree=31
num_leaves=15
num_cat=0
split_feature=3 38 24 1 32 48 27 49 30 32 5 26 33 41
split_gain=8.6489 7.04303 8.57951 10.932 10.3477 7.68422 8.55573 7.10477 3.49559 2.96418 0.624372 0.623034 0.0062724 0.00257012
threshold=-0.069441893792626178 0.086575295280658909 -0.0067460169338816487 0.024028855886871904 -0.051925957176354849 0.020461542283685751 0.030370908465595054 0.044466242466716356 -0.011659405216257298 0.036364476070681606 0.15216800779285103 0.011980912823712702 0.0020435522992860505 0.031777061742927305
decision_type=2 2 2 2 2 2 2 2 2 2 2 2 2 2
left_child=9 2 5 4 -4 7 -7 -2 -5 10 12 -3 13 -1
right_child=1 11 3 8 -6 6 -8 -9 -10 -11 -12 -13 -14 -15
leaf_value=-0.089043979879764687 -0.065216623428861462 -0.092507187350328313 -0.056647674380787341 0.02576440340238172 0.1037650506712879 0.099005411523432688 -0.06136094617337795 0.070646806007333265 -0.093478920119893047 0.008090694944265682 -0.042346035832299019 -0.038191896625310105 -0.091893597455525389 -0.085385720294778811
leaf_weight=4.0707615390420013 22.577645838260654 5.5122072100639325 4.6894171088933936 4.5321829169988632 28.224024340510368 10.218999445438383 4.9326833039522162 4.6399845182895652 5.3727294057607633 5.2182240784168235 3.6935292184352866 3.4235073328018188 4.9019681885838509 3.6356239393353462
leaf_count=24 111 28 21 19 93 40 22 17 27 23 17 18 26 26
internal_value=-0.00031341 0.0127631 0.0216226 0.0531911 0.0809099 -0.0102805 0.0467976 -0.042055 -0.0389168 -0.0575069 -0.0785046 -0.0716976 -0.089097 -0.0873181
internal_weight=115.643 94.1234 85.1877 42.8184 32.9134 42.3693 15.1517 27.2176 9.90491 21.5201 16.3019 8.93571 12.6084 7.70639
internal_count=512 396 350 160 114 190 62 128 46 116 93 46 76 50
is_linear=0
shrinkage=0.1


Tree=32
num_leaves=16
num_cat=0
split_feature=31 28 25 14 10 28 30 44 27 22 31 42 18 25 11
split_gain=11.3181 8.98359 7.37877 6.38643 6.9472 5.77131 5.71695 5.15204 4.52848 3.72624 0.223442 0.0113202 0.016505 0.00146417 0.000523546
threshold=0.0049651515504707004 0.040899786256692154 0.0062792088484322503 0.0067930683928092003 0.079298019424787217 0.0074090405721741011 0.0099549597304480503 0.019024107359748254 0.054983226435163506 -0.045219621715082592 -0.0053277639608242987 -0.0017437056055351998 -0.0048290500801597995 -0.014491286368186947 -0.011114976237880247
decision_type=2 2 2 2 2 2 2 2 2 2 2 2 2 2 2
left_child=2 3 11 4 9 7 8 -4 -5 -2 -7 12 -1 14 -13
right_child=1 -3 5 6 -6 10 -8 -9 -10 -11 -12 13 -14 -15 -16
leaf_value=-0.086478622278278461 0.13041845285427528 -0.088841210656508005 0.077810896674143648 -0.082394870252031904 -0.045541958349553546 -0.086986207080885988 0.05216664438927348 -0.035585815440327795 0.052657752740182411 0.055913840416843177 -0.05206538777864244 -0.085872211262273387 -0.095518660990695642 -0.087456599884949304 -0.084182637607612937
leaf_weight=4.2409275621175766 10.712956964969633 6.2942863181233397 9.3023178577423149 9.5965543687343615 4.8613399267196646 5.1789098754525185 10.37891226261854 7.0379622131586066 3.3493853956460944 17.977846786379818 2.8354976624250394 3.7507095783948898 3.8559708371758479 3.8370667323470098 3.5888740345835686
leaf_count=29 34 38 35 54 24 34 36 33 14 65 19 26 19 24 28
internal_value=-0.00253478 0.0245189 -0.041707 0.0370638 0.0650028 -0.00512242 -0.00312554 0.0289695 -0.0474539 0.0837334 -0.0746312 -0.0879364 -0.0907837 -0.0858736 -0.0850461
internal_weight=106.8 63.1713 43.6282 56.877 33.5521 24.3547 23.3249 16.3403 12.9459 28.6908 8.01441 19.2735 8.0969 11.1767 7.33958
internal_count=512 265 247 227 123 121 104 68 68 99 53 126 48 78 54
is_linear=0
shrinkage=0.1


Tree=33
num_leaves=16
num_cat=0
split_feature=44 9 48 28 36 2 9 0 1 10 23 42 20 24 28
split_gain=6.07358 6.2692 8.49133 9.64774 7.81944 8.50252 7.75357 7.53357 5.9436 4.56182 4.34467 3.60302 0.306304 0.18096 0.00235641
threshold=-0.040495822606819047 -0.010997543228902548 0.0037308949781008007 0.0080085789805560519 0.061351854891498407 -0.11174710582956528 -0.014308487437786798 -0.10292594596728204 -0.0013539605687951997 -0.055196244843559693 0.0091761003838752523 -0.039529605505607891 0.070452124250619363 -0.04769851661471914 0.034551029796521006
decision_type=2 2 2 2 2 2 2 2 2 2 2 2 2 2 2
left_child=11 4 3 7 5 10 -7 -3 -5 -4 -2 -1 -11 -13 -15
right_child=1 2 9 8 -6 6 -8 -9 -10 12 -12 13 -14 14 -16
leaf_value=0.02730768036751623 0.037391277111314569 0.038578579598111437 0.011290217087590398 0.14518063440966109 -0.065434200532557205 -0.012643142764070256 0.12846751528053563 -0.098048643290892634 0.0015586090483975905 -0.091547637886129449 0.14708778309392462 -0.063318311155031504 -0.057560118749329016 -0.089046292827715035 -0.092324685851217614
leaf_weight=3.9004332721233395 5.5100349187850943 8.3199620693922061 6.8559878617525127 7.5187577605247498 6.5219169259071341 19.555909730494022 4.8619672656059292 7.8375111520290401 4.6718100607395154 14.008562557399275 10.473317205905913 3.3845000565052041 3.270747445523738 5.0108523666858638 3.8979553878307343
leaf_count=17 22 28 28 25 35 81 15 35 21 81 33 21 21 29 20
internal_value=0.000357481 0.00960892 -0.0141366 0.0229778 0.0361682 0.0525697 0.0154541 -0.0276952 0.0901401 -0.0577291 0.109271 -0.0564332 -0.0851142 -0.0830026 -0.0904807
internal_weight=115.6 99.4065 52.4833 28.348 46.9231 40.4012 24.4179 16.1575 12.1906 24.1353 15.9834 16.1937 17.2793 12.2933 8.90881
internal_count=512 425 239 109 186 151 96 63 46 130 55 87 102 70 49
is_linear=0
shrinkage=0.1


Tree=34
num_leaves=9
num_cat=0
split_feature=35 43 28 39 48 44 7 37
split_gain=9.08547 7.33806 6.96681 6.49428 7.99052 5.66586 6.11149 4.88041
threshold=-0.10242945300739213 -0.10123251036157278 0.040899786256692154 -0.029108963140438943 0.014730041204674251 0.022621229799354454 -0.014116145599088749 0.04444452318827611
decision_type=2 2 2 2 2 2 2 2
left_child=-1 -2 5 -4 -5 6 -3 -7
right_child=1 2 3 4 -6 7 -8 -9
leaf_value=0.12678372046645053 0.11677691017447499 -0.042146583491400026 -0.034598459662829789 -0.003585992707982882 0.15641940774505958 -0.072598216187854281 0.024045460684667428 0.04885811691915784
leaf_weight=5.5804745107889167 4.8157509416341773 23.713000982999802 6.7440565675497082 5.5235932767391187 7.1756756454706192 25.819042310118679 33.875361576676369 3.7946195006370536
leaf_count=18 19 111 29 22 23 138 135 17
internal_value=0.0022664 -0.00396775 -0.00942018 0.0447081 0.0868245 -0.0214891 -0.00321025 -0.0570351
internal_weight=117.042 111.461 106.645 19.4433 12.6993 87.202 57.5884 29.6137
internal_count=512 494 475 74 45 401 246 155
is_linear=0
shrinkage=0.1


Tree=35
num_leaves=16
num_cat=0
split_feature=3 40 46 39 46 15 43 20 48 26 4 2 34 8 41
split_gain=7.53825 6.32554 8.23695 8.35624 7.56873 6.03544 4.93989 4.76757 4.70285 2.94733 0.878419 0.277369 0.0118048 0.0047757 0.00345653
threshold=-0.069441893792626178 0.012615778354068153 -0.057718501065311942 0.024207814755988304 -0.016784492110406248 0.011264931922275052 -0.051423858432367388 -0.057030468759711191 -0.030040295174838545 -0.019912865597124994 -0.069508124057453088 0.34253896087889507 0.0089802138512502013 0.018744789531850502 0.017679418957119653
decision_type=2 2 2 2 2 2 2 2 2 2 2 2 2 2 2
left_child=9 2 -2 7 6 -5 -3 -4 -8 -1 -6 12 14 -12 -11
right_child=1 4 3 5 10 -7 8 -9 -10 11 13 -13 -14 -15 -16
leaf_value=-5.1010926795798453e-05 -0.069919242264499373 -0.072526037593727596 0.13902832593491454 -0.07967012992848943 -0.030990959936880731 0.04606877407396074 0.1330146474755689 0.050935195740035993 0.003740318936287033 -0.088918165087044865 -0.087996698189671332 -0.054709444771263022 -0.093758242206838482 -0.092281449585646463 -0.084600170454732795
leaf_weight=6.5639430284500149 7.2391118109226218 4.0215764343738547 7.6311559528112367 7.9206527620553953 3.3033657446503648 7.3689345717430115 4.7215421497821799 31.512962132692341 6.9656880870461491 3.5170560702681524 7.6142899319529498 3.0444019436836234 3.3954624310135841 3.9510865360498428 3.9202209934592247
leaf_count=29 35 18 25 43 19 29 15 114 31 21 47 19 17 20 30
internal_value=-0.00031835 0.0118563 0.0302946 0.0436219 -0.0253323 -0.0190693 0.0230711 0.068109 0.0559661 -0.0552626 -0.0764704 -0.0813778 -0.0888726 -0.0894605 -0.0866421
internal_weight=112.691 92.2504 61.6728 54.4337 30.5775 15.2896 15.7088 39.1441 11.6872 20.4411 14.8687 13.8771 10.8327 11.5654 7.43728
internal_count=512 396 246 211 150 72 64 139 46 116 86 87 68 67 51
is_linear=0
shrinkage=0.1


Tree=36
num_leaves=13
num_cat=0
split_feature=31 28 25 38 47 48 7 44 3 22 42 15
split_gain=9.65429 7.62849 6.76411 5.8736 5.80107 8.10481 5.35697 3.0533 4.91261 0.0105315 0.00316689 0.00105192
threshold=0.0049651515504707004 0.040899786256692154 0.0062792088484322503 -0.058831878158614744 0.043465912745179004 -0.013741141573294648 -0.065123212308695583 0.020774893177693154 -0.029906066557044097 0.093186332433351324 -0.010828846292999699 -0.0055419912961209494
decision_type=2 2 2 2 2 2 2 2 2 2 2 2
left_child=2 3 9 -2 5 -5 -4 8 -8 10 -1 -12
right_child=1 -3 6 4 -6 -7 7 -9 -10 -11 11 -13
leaf_value=-0.087893836413264245 -0.06377058623126837 -0.0872415512714588 0.07288558032328285 -0.063787802764307941 0.10978329228439487 0.049472394713650218 0.061377100121208318 -0.091921401415582804 -0.070985452015196335 -0.092591082077637082 -0.086348873078370039 -0.084133189589338492
leaf_weight=4.638817302882674 5.572270728647708 5.7636131495237342 6.4143716841936138 7.9067044928669885 10.691324204206465 31.446747682988647 5.725972436368469 5.9779204279184333 5.4948995783925039 2.6103582829236975 2.9871643260121346 7.5799127966165525
leaf_count=30 25 38 27 41 35 126 23 37 34 16 20 60
internal_value=-0.00290563 0.02227 -0.0402052 0.0336188 0.0444627 0.0267167 -0.00510723 -0.034195 -0.0034413 -0.0867231 -0.0857157 -0.0847595
internal_weight=102.81 61.3807 41.4294 55.617 50.0448 39.3535 23.6132 17.1988 11.2209 17.8163 15.2059 10.5671
internal_count=512 265 247 227 202 167 121 94 57 126 110 80
is_linear=0
shrinkage=0.1


Tree=37
num_leaves=12
num_cat=0
split_feature=16 45 37 17 49 26 42 12 42 23 31
split_gain=5.29328 5.83186 6.24211 4.87301 6.54757 4.30745 4.09464 7.17067 0.681967 0.164123 0.0128523
threshold=0.039487461774289807 0.06489172429998756 -0.036828016619218293 -0.085928093809477926 -0.076585623961871699 -0.031113781284135545 -0.0038326330151682493 -0.018184367454536797 0.054583446386690403 -0.012136873021478948 0.012378019530827952
decision_type=2 2 2 2 2 2 2 2 2 2 2
left_child=1 2 5 -4 -5 -1 10 -8 -9 -3 -2
right_child=6 9 3 4 -6 -7 7 8 -10 -11 -12
leaf_value=0.018448774719940133 -0.094609309490129023 -0.090080363369255206 -0.096148446054831277 0.11886668913071981 0.0010441790953387758 0.11268366583051606 0.062000416971068631 -0.093922819634581267 -0.034951283941461291 -0.058970831548692364 -0.087275685663275537
leaf_weight=9.0484295487403887 5.1171485334634799 3.8162830844521523 4.5042391419410697 5.1980589628219596 50.915905393660069 10.455523073673247 7.5767477154731742 5.3021752685308439 3.1119572296738625 3.0520823001861563 4.4834631979465485
leaf_count=37 25 22 24 18 223 35 28 30 19 21 30
internal_value=0.000416417 0.0121773 0.0197581 0.00392565 0.0119585 0.0689655 -0.0395611 -0.00856742 -0.0721123 -0.0762563 -0.0911845
internal_weight=112.582 86.9905 80.1222 60.6182 56.114 19.504 25.5915 15.9909 8.41413 6.86837 9.60061
internal_count=512 380 337 265 241 72 132 77 49 43 55
is_linear=0
shrinkage=0.1


Tree=38
num_leaves=6
num_cat=0
split_feature=35 40 44 3 12
split_gain=7.41789 6.43908 5.541 4.42278 5.19022
threshold=-0.10242945300739213 0.12616369929606078 -0.065780021675362885 -0.16442845176856588 0.10740755623399786
decision_type=2 2 2 2 2
left_child=-1 2 -2 -4 -5
right_child=1 -3 3 4 -6
leaf_value=0.11462490184477299 0.059175763779187388 0.11218365985548179 0.05412688587946575 -0.030888574247147367 0.053225383710097954
leaf_weight=5.6130284667015067 10.884033113718031 4.6274634301662436 8.1619186252355558 77.418069936335087 8.1037154793739301
leaf_count=18 38 16 30 380 30
internal_value=0.00251165 -0.00325137 -0.00835975 -0.0162059 -0.0229183
internal_weight=114.808 109.195 104.568 93.6837 85.5218
internal_count=512 494 478 440 410
is_linear=0
shrinkage=0.1


Tree=39
num_leaves=14
num_cat=0
split_feature=3 38 24 1 32 48 27 49 7 26 14 48 42
split_gain=6.6258 5.99374 6.87083 8.78281 7.96883 5.44125 6.69814 5.40261 3.08464 1.69571 0.631975 0.00896721 0.0022255
threshold=-0.10047429195549624 0.086575295280658909 -0.0067460169338816487 0.024028855886871904 -0.051925957176354849 0.020461542283685751 0.030370908465595054 0.044466242466716356 -0.00021692863715905129 -0.035443561449842793 -0.049188693286729243 -0.0019883728292848994 0.013963579131778351
decision_type=2 2 2 2 2 2 2 2 2 2 2 2 2
left_child=9 2 5 4 -4 7 -7 -2 -5 -1 -3 -11 -13
right_child=1 10 3 8 -6 6 -8 -9 -10 11 -12 12 -14
leaf_value=-0.011618265501387304 -0.058910033138169053 -0.036225358843471479 -0.054026623256491803 0.022493284408224869 0.087527133562172954 0.080836083591243321 -0.05919803555848812 0.059092538350983097 -0.090049188626516494 -0.091792688703881478 -0.091526249010698751 -0.086921153753087191 -0.083097551001151834
leaf_weight=4.2013374343514434 22.507026143372062 3.3770684972405434 4.5920701622962943 4.478230893611908 29.69015996158123 10.553511738777159 5.0503552779555312 4.6880571246147147 5.3388437405228597 3.3693191558122626 5.3249592036008817 3.8634904101490966 2.5119554549455643
leaf_count=19 121 20 22 18 100 42 26 17 31 18 30 26 22
internal_value=-0.000333297 0.00905997 0.0169836 0.0446849 0.0685662 -0.0115593 0.0355126 -0.038568 -0.038711 -0.064724 -0.0700652 -0.0876199 -0.0854146
internal_weight=109.546 95.6003 86.8983 44.0993 34.2822 42.799 15.6039 27.1951 9.81707 13.9461 8.70203 9.74477 6.37545
internal_count=512 427 377 171 122 206 68 138 49 85 50 66 48
is_linear=0
shrinkage=0.1


Tree=40
num_leaves=16
num_cat=0
split_feature=28 31 46 25 49 39 38 18 26 48 32 6 15 39 17
split_gain=8.56652 8.29236 8.14197 6.10377 5.90794 5.28697 4.09436 3.64954 5.236 3.50411 2.23196 2.02639 0.00621123 0.00314212 0.00197343
threshold=0.040899786256692154 0.036012272124509859 0.010720491233368901 -0.0015705577104308498 0.022464230288221504 0.0028855493312339507 0.018663658074362852 0.021340257995232852 -0.0057384910184125493 -0.0043553765590429996 0.018079946493166604 0.11462635338269461 -0.066518175529333826 -0.036751712614809688 1.0000000180025095e-35
decision_type=2 2 2 2 2 2 2 2 2 2 2 2 2 2 2
left_child=1 2 7 11 5 6 -3 12 -9 -5 -7 -4 -1 -2 -15
right_child=13 4 3 9 -6 10 -8 8 -10 -11 -12 -13 -14 14 -16
leaf_value=-0.089139216645017616 -0.082968837007293017 -0.078752201952885903 -0.087894647489928979 -0.014373714243808178 -0.060219963745071686 0.10267468267398212 0.051196205777621885 0.07158916027802438 -0.08890694799199865 0.0845618143576682 0.029518722552994064 0.013611279547350733 -0.084532084574028055 -0.087953606475230289 -0.08472441965048505
leaf_weight=3.7465237602591541 3.4718829095363617 4.1244726851582509 5.1701859682798403 5.1021309942007109 4.8381212949752799 17.166087329387668 5.8830420821905136 4.3015449494123459 3.8537949472665769 11.999073386192318 5.5088734626770011 3.1741338893771172 13.366070754826071 4.4766936600208265 3.278433121740818
leaf_count=23 31 20 34 22 25 58 22 17 25 41 20 16 105 28 25
internal_value=-0.00319531 0.00727332 -0.0190957 0.0208327 0.0429141 0.0581815 -0.00236041 -0.0593048 -0.00425306 0.0550445 0.0849015 -0.0492823 -0.0855407 -0.0854691 -0.0865885
internal_weight=99.4611 88.2341 50.7135 25.4455 37.5206 32.6825 10.0075 25.2679 8.15534 17.1012 22.675 8.34432 17.1126 11.227 7.75513
internal_count=512 428 283 113 145 120 42 170 42 63 78 50 128 84 53
is_linear=0
shrinkage=0.1


Tree=41
num_leaves=17
num_cat=0
split_feature=30 14 48 41 3 34 6 29 12 3 42 21 4 21 19 32
split_gain=4.86582 9.4496 8.84114 7.34247 7.28222 6.29099 6.67698 8.15832 5.66021 5.2508 4.92433 4.74284 0.741369 0.247366 0.0252133 0.00329713
threshold=1.0000000180025095e-35 -0.016105009103880349 -0.020219843157897498 -0.035946026961503195 -0.15055136564514013 -0.030040615254354797 1.0000000180025095e-35 0.057376653283184358 1.0000000180025095e-35 -0.028085418769110148 0.0022709400782113505 -0.0078857282870592477 0.082964721269589814 0.079159266178320711 0.025702774757083002 0.013918868931705452
decision_type=2 2 2 2 2 2 2 2 2 2 2 2 2 2 2 2
left_child=1 13 -3 -4 -5 8 7 12 -2 11 -10 -8 -7 14 15 -1
right_child=5 2 3 4 -6 6 9 -9 10 -11 -12 -13 -14 -15 -16 -17
leaf_value=-0.084905521067711293 0.13350899864419327 0.082024506414475618 0.087868470386472122 0.059110573246157927 -0.08528946653084743 -0.085201626683325205 0.05311195475253299 0.091007478468388012 0.091243815758586255 0.1012833896075459 -0.047089549316919749 -0.068369562367045764 -0.033692550400613433 -0.060125833759027331 -0.096440456773622327 -0.089251833166172523
leaf_weight=2.8563004359602946 7.7936162799596813 10.873445034027098 4.5787851214408901 4.5159453749656704 15.40953057259321 12.588809929788118 7.1341703981161118 3.6900520026683798 5.0357224047183973 8.0248697325587255 5.262543298304081 5.8483661413192767 3.591429576277732 3.1324850618839255 5.6652097254991531 4.4876798391342163
leaf_count=22 26 39 18 14 92 72 26 15 18 27 25 30 13 21 27 27
internal_value=0.000501437 -0.0219502 0.00697867 -0.0263219 -0.0525624 0.0201165 -0.00161271 -0.0431684 0.0692126 0.0376936 0.0205537 -0.00161297 -0.0737685 -0.0853535 -0.091428 -0.0875614
internal_weight=110.489 51.5194 35.3777 24.5043 19.9255 58.9696 40.8777 19.8703 18.0919 21.0074 10.2983 12.9825 16.1802 16.1417 13.0092 7.34398
internal_count=512 260 163 124 106 252 183 100 69 83 43 56 85 97 76 49
is_linear=0
shrinkage=0.1


Tree=42
num_leaves=12
num_cat=0
split_feature=38 28 31 38 48 48 35 49 41 10 39
split_gain=7.30911 6.5163 6.8292 6.54889 5.53096 5.40117 4.5863 3.62548 6.26441 3.59812 2.34329
threshold=-0.12339894688183244 0.040899786256692154 0.0049651515504707004 -0.052441761449902292 0.014730041204674251 0.020461542283685751 0.023398141962034952 0.010537486629203252 -0.00048248752043094994 0.040960857715738104 0.077140782580666312
decision_type=2 2 2 2 2 2 2 2 2 2 2
left_child=-1 2 5 -3 -5 6 -2 10 -9 -7 -4
right_child=1 3 7 4 -6 9 -8 8 -10 -11 -12
leaf_value=0.1322553833002332 0.013299225393792731 -0.059456699191381218 -0.074129042481204777 0.015350692470019037 0.12937140417364196 -0.085344667040720398 0.10437823355547655 -0.075741845509017483 0.069956868563238517 0.03518046600207194 0.013181073014919492
leaf_weight=4.1893109977245322 28.017915621399879 4.5763803273439434 25.373562753200535 8.0969766378402728 8.9645421504974347 7.9250709041953069 6.8879274576902381 5.5221293866634369 6.3379855155944806 3.6031231284141541 3.497679963707923
leaf_count=15 114 21 141 32 29 40 25 29 29 18 19
internal_value=0.00263991 -0.00235075 -0.0145439 0.0467676 0.07526 0.0116717 0.0312717 -0.0444298 0.00211881 -0.0476747 -0.0635516
internal_weight=112.993 108.803 87.1654 21.6379 17.0615 46.434 34.9058 40.7314 11.8601 11.5282 28.8712
internal_count=512 497 415 82 61 197 139 218 58 58 160
is_linear=0
shrinkage=0.1


Tree=43
num_leaves=14
num_cat=0
split_feature=3 40 17 24 26 39 18 11 32 11 23 41 33
split_gain=5.92405 5.14242 6.8462 6.29288 6.27363 4.91642 4.29574 3.24604 2.6702 0.723793 0.630509 0.0061749 0.00263572
threshold=-0.069441893792626178 0.012615778354068153 -0.075864090842255191 -0.046308317160463998 0.055553289745059263 -0.042111941984657238 0.021340257995232852 0.046013366347866708 0.036364476070681606 0.074752405959818663 0.024182698437149354 0.0034050893026176502 -0.0010064973905317997
decision_type=2 2 2 2 2 2 2 2 2 2 2 2 2
left_child=8 2 -2 7 5 -3 -5 -4 9 11 -7 -1 -13
right_child=1 4 3 6 -6 10 -8 -9 -10 -11 -12 12 -14
leaf_value=-0.089585083953315464 -0.077222522441199024 0.032664567050423386 -0.077997310635614825 0.071351908525215058 0.055024300937079343 -0.090698940090640445 -0.0044938460519214291 0.037584275628840452 0.012470885659967882 -0.031753259750459971 -0.044008314895517014 -0.082937391281112591 -0.086987055449780054
leaf_weight=4.0179962292313594 5.6777512282133094 5.1630510687828126 6.1799913197755796 34.098417341709137 7.3654044046998015 12.164891839027403 9.561442591249941 4.0042007863521576 4.8122590631246558 3.1250012814998618 3.7943295463919631 3.877462275326252 2.7449059560894966
leaf_count=24 30 22 35 123 29 75 41 17 23 15 24 35 19
internal_value=-0.000336669 0.0104948 0.0272176 0.0382306 -0.0244457 -0.0521571 0.0547418 -0.0325532 -0.0516496 -0.0740656 -0.0795982 -0.0864924 -0.0846159
internal_weight=106.587 88.0095 59.5218 53.8441 28.4877 21.1223 43.6599 10.1842 18.5776 13.7654 15.9592 10.6404 6.62237
internal_count=512 396 246 216 150 121 164 52 116 93 99 78 54
is_linear=0
shrinkage=0.1


Tree=44
num_leaves=11
num_cat=0
split_feature=28 19 31 1 46 39 25 39 39 17
split_gain=7.41941 7.07902 8.3639 7.84717 9.07044 3.98382 1.02468 0.0315195 0.00206301 0.00125045
threshold=0.040899786256692154 0.091007175553595568 0.055381931217867657 0.14975001183942346 0.016560785142326253 0.012484733260889651 0.030209320727257055 0.0085788193504054023 -0.036751712614809688 0.0095437262497933013
decision_type=2 2 2 2 2 2 2 2 2 2
left_child=1 2 3 4 -1 -4 -7 -3 -2 -10
right_child=8 7 5 -5 -6 6 -8 -9 9 -11
leaf_value=-0.063838906359589109 -0.082100657285074333 -0.086975515347962468 0.0085425895116925492 0.071992141583429356 0.027781826205470109 0.11356618445493272 0.059248008465462146 -0.10089522205284161 -0.086227276196030322 -0.083483641187542479
leaf_weight=25.630711399018764 3.1613192409276962 3.8341275230050078 8.3068245202302951 10.220308400690554 18.680880650877953 9.9391313791275007 5.3382568359374991 2.8255872204899788 4.3372169733047468 2.6923370361328125
leaf_count=178 31 28 33 36 83 35 20 15 30 23
internal_value=-0.0036048 0.0060862 0.0145236 -0.00699528 -0.0252134 0.06428 0.0945862 -0.0928814 -0.0842223 -0.0851765
internal_weight=94.9667 84.7758 78.1161 54.5319 44.3116 23.5842 15.2774 6.65971 10.1909 7.02955
internal_count=512 428 385 297 261 88 55 43 84 53
is_linear=0
shrinkage=0.1


Tree=45
num_leaves=14
num_cat=0
split_feature=44 45 34 37 16 40 48 43 1 25 30 31 3
split_gain=4.52586 4.5508 5.55262 6.02828 4.54007 4.77053 4.45677 4.11693 3.08856 1.16857 0.176201 0.0347139 0.00742075
threshold=-0.048070108585938492 -0.04796334871862059 -0.030040615254354797 0.019497355439807403 -0.085884630062795078 0.0031070518716584004 -0.025618168110729745 0.025325164684156302 -0.014305404940765548 0.088395087250954116 -0.0034235800207359497 0.036012272124509859 -0.0092609779075345979
decision_type=2 2 2 2 2 2 2 2 2 2 2 2 2
left_child=8 7 4 6 -3 -6 -4 9 -1 11 -5 -2 -10
right_child=1 2 3 10 5 -7 -8 -9 12 -11 -12 -13 -14
leaf_value=0.026373050708823426 -0.09997692499604334 -0.033731638558415988 0.073616686889947033 -0.0624373364587473 0.031143773406133803 0.1315801151626432 -0.0015237390614225312 0.04800361679652522 -0.092330044640370978 -0.025011633509695947 -0.092728581036183713 -0.086302187408371298 -0.086433350932314745
leaf_weight=3.1634337380528441 4.6857444047927839 4.3474356234073666 9.873598635196684 3.250136561691761 9.8057826682925242 9.1346809118986112 39.361897647380829 3.7543233186006537 4.1381572708487502 3.5081295445561409 4.6933373212814322 3.0743589028716087 4.4070194810628882
leaf_count=17 21 20 40 24 41 31 180 15 22 20 25 23 33
internal_value=0.000639562 0.00783459 0.0172671 0.000502772 0.0584289 0.0795826 0.0135448 -0.04269 -0.0580394 -0.0729071 -0.0803347 -0.0945593 -0.0892889
internal_weight=107.198 95.4894 80.4669 57.179 23.2879 18.9405 49.2355 15.0226 11.7086 11.2682 7.94347 7.7601 8.54518
internal_count=512 440 361 269 92 72 220 79 72 64 49 44 55
is_linear=0
shrinkage=0.1


Tree=46
num_leaves=7
num_cat=0
split_feature=44 40 44 25 38 40
split_gain=5.82587 5.43338 4.58926 4.75264 6.50602 3.80914
threshold=-0.065780021675362885 0.12616369929606078 0.092103218638397211 -0.11152331623635624 -0.017188155579156799 -0.0087414179671289477
decision_type=2 2 2 2 2 2
left_child=5 2 3 -2 -5 -1
right_child=1 -3 -4 4 -6 -7
leaf_value=0.11910149807159856 0.067595122277448377 0.096534104907382609 0.061791917550413515 -0.067160464833072087 -0.0049694411204892971 0.009540425706583101
leaf_weight=6.6205877959728241 6.0725924074649802 4.9660671800374976 7.9553550854325286 24.363131426274769 54.339582554996021 6.094489783048628
leaf_count=21 20 17 38 139 253 24
internal_value=0.00291489 -0.00537201 -0.0108295 -0.0176443 -0.0242212 0.0665876
internal_weight=110.412 97.6967 92.7307 84.7753 78.7027 12.7151
internal_count=512 467 450 412 392 45
is_linear=0
shrinkage=0.1


Tree=47
num_leaves=15
num_cat=0
split_feature=3 36 13 25 40 32 43 1 9 35 26 10 48 41
split_gain=5.2065 4.69565 8.74316 5.57072 5.41924 5.99715 4.81679 3.41649 2.55729 2.02041 1.61456 1.34269 0.00795239 0.00189692
threshold=-0.10047429195549624 0.0078004386276188517 0.051868224812924101 0.018470415166466605 0.037042997052510955 0.0080055749257133008 -0.045705882563773496 0.027341154878044404 0.024008898970266604 0.088899209925146369 -0.035443561449842793 0.060518491407810654 -0.0019883728292848994 0.012402602268720251
decision_type=2 2 2 2 2 2 2 2 2 2 2 2 2 2
left_child=10 3 6 4 5 -2 -3 -8 -4 11 -1 -5 -12 -14
right_child=1 2 8 9 -6 -7 7 -9 -10 -11 12 -13 13 -15
leaf_value=-0.0090212385528293075 -0.027692086939877639 -0.046177556260032906 -0.089917687013635283 -0.091736139905144842 -0.090433066443843677 0.069051347797647308 0.089151849569968522 0.002272029343686218 0.015863322177900041 0.012300028092236098 -0.089921011955999969 -0.021970150916914857 -0.085519985043083016 -0.081746588252548325
leaf_weight=4.0387596115469924 10.843626596033578 3.9400566741824141 6.1349806785583478 10.795571602880957 4.3938819244503966 15.663614884018896 22.694099813699726 5.6539623886346808 3.642209492623806 3.345784366130828 3.1053485348820677 3.7054560333490363 2.5603001043200484 2.7775159552693367
leaf_count=19 55 22 39 65 28 59 78 30 16 17 18 18 19 29
internal_value=-0.000465291 0.00785808 0.0323368 -0.013265 0.0124254 0.0294754 0.0574244 0.0718238 -0.050512 -0.057747 -0.0610226 -0.0739088 -0.0858973 -0.0835565
internal_weight=103.295 90.8132 42.0653 48.7479 30.9011 26.5072 32.2881 28.3481 9.77719 17.8468 12.4819 14.501 8.44316 5.33782
internal_count=512 427 185 242 142 114 130 108 55 100 85 83 66 48
is_linear=0
shrinkage=0.1


Tree=48
num_leaves=11
num_cat=0
split_feature=28 19 31 1 45 39 25 39 39 17
split_gain=6.66665 6.26214 7.17317 6.52887 8.0852 3.59934 1.00505 0.0278762 0.00164341 0.00103721
threshold=0.040899786256692154 0.091007175553595568 0.055381931217867657 0.14975001183942346 0.059098236662777255 0.012484733260889651 0.030209320727257055 0.011199745784764603 -0.033508045289418392 1.0000000180025095e-35
decision_type=2 2 2 2 2 2 2 2 2 2
left_child=1 2 3 4 -1 -4 -7 -3 -2 -10
right_child=8 7 5 -5 -6 6 -8 -9 9 -11
leaf_value=-0.04164886537455606 -0.081462511314534913 -0.085779690914831425 0.0071490873624699778 0.064776755626217847 0.083109774427993818 0.10916897696667655 0.054597636568495672 -0.099445101352389598 -0.085401191254905334 -0.082828576605232629
leaf_weight=36.738137789070606 2.9958870187401772 3.6341100931167594 8.2330028265714663 10.270366728305815 6.0500026047229758 9.469936326146124 5.2435474693775168 2.5333633571863174 3.6620605215430242 2.7395767793059349
leaf_count=236 32 29 33 36 25 35 20 14 27 25
internal_value=-0.00360833 0.00551641 0.0133802 -0.00682278 -0.0240087 0.0600949 0.089721 -0.0913929 -0.0833956 -0.0843002
internal_weight=91.57 82.1725 76.005 53.0585 42.7881 22.9465 14.7135 6.16747 9.39752 6.40164
internal_count=512 428 385 297 261 88 55 43 84 52
is_linear=0
shrinkage=0.1


Tree=49
num_leaves=11
num_cat=0
split_feature=16 18 34 32 1 42 12 13 14 31
split_gain=4.15046 4.77511 5.20034 5.02792 5.21998 3.5663 5.52197 0.60052 0.0826518 0.0144245
threshold=0.039487461774289807 0.09242410463641075 -0.081555342548137733 0.077798805732351414 0.061789695173697555 -0.0038326330151682493 -0.018184367454536797 -0.022897089814980048 0.013090369924283451 -0.0075827360307639995
decision_type=2 2 2 2 2 2 2 2 2 2
left_child=1 2 -1 4 -4 9 -7 -8 -5 -2
right_child=5 -3 3 8 -6 6 7 -9 -10 -11
leaf_value=0.087179722196671999 -0.094296361209521701 -0.091609286411938037 0.029210651227632146 -0.089752336459001089 -0.046650315205091351 0.053074002825500288 -0.033574555112466903 -0.092200921437942451 -0.066369106198701094 -0.085870214394791908
leaf_weight=9.2408894672989828 3.5883286222815514 4.2897888571023932 51.145720593631268 3.376842387020587 11.025928325951098 7.4540605396032333 2.8770564198493958 4.4490222893655282 2.7366818860173225 4.6830347552895564
leaf_count=37 19 26 223 21 54 28 21 28 19 36
internal_value=0.000532838 0.0110927 0.0167756 0.00724793 0.015757 -0.0369469 -0.00752246 -0.0691775 -0.079285 -0.0895257
internal_weight=104.867 81.8159 77.5261 68.2852 62.1716 23.0515 14.7801 7.32608 6.11352 8.27136
internal_count=512 380 354 317 277 132 77 49 40 55
is_linear=0
shrinkage=0.1


Tree=50
num_leaves=7
num_cat=0
split_feature=38 12 11 24 32 44
split_gain=5.66541 5.3084 5.875 4.34819 4.85165 3.54941
threshold=-0.12339894688183244 0.11303054884460412 -0.15677267573225742 -0.033348786043434338 0.015802532715695105 0.095590742883912574
decision_type=2 2 2 2 2 2
left_child=-1 2 -2 5 -5 -4
right_child=1 -3 3 4 -6 -7
leaf_value=0.11636039407682959 0.080079957105398739 0.065466568983320525 -0.068685040866266686 0.020979944006655076 -0.035923917196432127 0.034300809911528632
leaf_weight=4.2355212569236746 6.8274389058351508 10.59245891869068 20.540829144418243 36.809058450162411 25.269105106592178 3.9979371502995482
leaf_count=15 26 38 112 161 139 21
internal_value=0.00299071 -0.00162477 -0.00922996 -0.0162697 -0.00218295 -0.0519062
internal_weight=108.272 104.037 93.4444 86.6169 62.0782 24.5388
internal_count=512 497 459 433 300 133
is_linear=0
shrinkage=0.1


Tree=51
num_leaves=14
num_cat=0
split_feature=3 40 36 13 10 30 35 43 6 1 19 47 24
split_gain=4.64469 4.0556 3.74378 5.61031 5.33504 7.55243 4.57362 3.52098 2.49648 2.41997 2.25456 0.00429886 0.000710218
threshold=-0.069441893792626178 0.095677077337370561 0.0078004386276188517 0.051868224812924101 0.0071478799332631007 0.018998775519943955 -0.051795203603384694 -0.034190757281586347 0.016132094324991051 0.0015179998742229502 -0.012591151988142498 -0.0014691989152483497 -0.0012579521142424999
decision_type=2 2 2 2 2 2 2 2 2 2 2 2 2
left_child=8 2 4 7 6 -6 -2 -4 10 -5 -1 -10 -13
right_child=1 -3 3 9 5 -7 -8 -9 11 -11 -12 12 -14
leaf_value=-0.065701358945836716 0.046429457942011441 -0.077178020488691768 -0.026354814614211127 -0.090584907450010507 0.064084733590557816 -0.065646806570036062 -0.071091593297442079 0.071858630495514039 -0.088335075422245488 0.023437189945366393 0.039316292321135524 -0.082580755707323733 -0.08493563549732322
leaf_weight=3.7734763771295547 4.2695363759994533 5.1008440703153601 4.2688259184360531 4.1269768849015227 15.900771215558054 6.2517258748412123 14.758524529635904 25.190382711589336 3.552103266119957 3.3906183242797852 4.4609849750995654 2.4537869319319725 2.6789688915014249
leaf_count=26 19 33 24 25 64 35 86 94 23 16 24 23 20
internal_value=-0.000491866 0.00921483 0.0148532 0.0379499 -0.00588588 0.0274728 -0.0447221 0.0576269 -0.0482575 -0.0391582 -0.00880849 -0.0856607 -0.0838099
internal_weight=100.178 83.2582 78.1574 36.9768 41.1806 22.1525 19.0281 29.4592 16.9193 7.5176 8.23446 8.68486 5.13276
internal_count=512 396 363 159 204 99 105 118 116 41 50 66 43
is_linear=0
shrinkage=0.1


Tree=52
num_leaves=10
num_cat=0
split_feature=28 4 38 12 11 43 4 28 39
split_gain=6.02109 5.73883 5.87688 4.9243 5.3649 3.20047 0.00240759 0.00138062 0.000588149
threshold=0.040899786256692154 0.10989871132191086 -0.071542494735215137 0.056503296732322808 -0.035653266024765089 0.048106017685838852 0.13519132564504202 0.055211275007337905 -0.036751712614809688
decision_type=2 2 2 2 2 2 2 2 2
left_child=1 2 -1 4 -4 -5 -3 -2 -9
right_child=7 6 3 5 -6 -7 -8 8 -10
leaf_value=-0.088231696994028122 -0.084719197851545761 -0.086753239281476519 0.065288090117352648 -0.088978285872187049 0.0043330594829258939 0.030713322335762783 -0.08291257463509108 -0.080584056166810594 -0.082594503043368239
leaf_weight=5.315171603113412 2.3423043228685838 3.1836728230118743 26.364326201379292 6.116907134652136 31.922445952892311 3.5193613842129707 3.3492569997906685 2.2601508684456348 4.0853845439851284
leaf_count=35 19 22 113 44 168 16 30 27 38
internal_value=-0.00358854 0.00502139 0.0130321 0.0209563 0.0319043 -0.0452645 -0.0847842 -0.0826443 -0.0818784
internal_weight=88.459 79.7711 73.2382 67.923 58.2868 9.63627 6.53293 8.68784 6.34554
internal_count=512 428 376 341 281 60 52 84 65
is_linear=0
shrinkage=0.1


Tree=53
num_leaves=16
num_cat=0
split_feature=20 12 30 34 29 6 2 36 14 22 37 22 42 6 4
split_gain=3.67826 4.91164 5.9117 6.56192 4.83305 4.12272 3.10099 2.93439 4.19004 1.38022 1.33678 1.29555 0.0202445 0.0131592 0.0011954
threshold=-0.05878606364900129 0.039133949696541756 -0.024805885611315647 -0.030040615254354797 -0.033890479329555391 0.018073255929092202 -0.13354125255559798 -0.014657288837600398 0.032473602097504557 0.016052727747792855 0.0072549050446375505 0.017295854197911104 -0.0061710218877907988 -0.020865238888352147 0.029121306320890303
decision_type=2 2 2 2 2 2 2 2 2 2 2 2 2 2 2
left_child=6 2 11 10 -3 -5 -1 -6 -9 13 -4 12 -2 14 -8
right_child=1 4 3 5 7 -7 9 8 -10 -11 -12 -13 -14 -15 -16
leaf_value=0.040255631740341184 -0.084758451462145862 -0.053719333354094234 0.037740903662750597 -0.047486500335491733 0.10648916824496871 0.01841410219203838 -0.082540483430944195 -0.037595053962109132 0.092318357567541767 -0.020935691500387488 0.10764154463606129 -0.015829193075690973 -0.094443955755414991 -0.09222811141114691 -0.085546204394333664
leaf_weight=3.6472061872482326 4.6297979876399031 3.9251319020986584 4.8711234182119352 16.775690235197544 9.8341623619198852 21.867363162338734 2.3214036077260971 4.8109256550669617 5.1297834068536758 4.8788889721035948 6.2414060235023499 3.3218598887324324 4.0422378033399573 3.3556366041302663 3.0770378857851028
leaf_count=16 38 19 20 94 34 91 24 24 19 26 21 21 22 21 22
internal_value=0.000432201 0.00894148 -0.00591159 0.00927985 0.0476406 -0.0101946 -0.0416457 0.0677596 0.0294452 -0.0635566 0.0770009 -0.0689319 -0.0892731 -0.0873105 -0.0842537
internal_weight=102.73 85.4495 61.7495 49.7556 23.7 38.6431 17.2802 19.7749 9.94071 13.633 11.1125 11.9939 8.67204 8.75408 5.39844
internal_count=512 403 307 226 96 185 109 77 43 93 41 81 60 67 46
is_linear=0
shrinkage=0.1


Tree=54
num_leaves=7
num_cat=0
split_feature=43 26 44 4 2 25
split_gain=5.36399 6.05877 4.38965 4.01804 4.53463 2.24479
threshold=-0.10123251036157278 -0.13042278896780213 -0.065780021675362885 -0.15120384629591041 0.32797328390313302 0.019999538701651904
decision_type=2 2 2 2 2 2
left_child=-1 -2 -3 5 -5 -4
right_child=1 2 3 4 -6 -7
leaf_value=0.098724221669542672 0.11257736641186789 0.055330544455010448 0.088307815977758983 -0.031585633899378872 0.04604483496833691 -0.0019769417545029487
leaf_weight=5.5557986646890631 4.3988753110170355 9.9937135577201825 5.3380961418151838 67.143663346767426 8.4741579294204694 5.6886312365531921
leaf_count=21 15 38 19 367 29 23
internal_value=0.00306051 -0.00219982 -0.00742436 -0.0146626 -0.0228859 0.0417304
internal_weight=106.593 101.037 96.6383 86.6445 75.6178 11.0267
internal_count=512 491 476 438 396 42
is_linear=0
shrinkage=0.1


Tree=55
num_leaves=11
num_cat=0
split_feature=3 20 31 24 13 27 6 32 47 24
split_gain=4.13034 4.08484 4.45403 3.92193 6.05104 5.1118 2.35228 2.05246 0.00368255 0.000551632
threshold=-0.069441893792626178 -0.14170574035487513 -0.057885020711654946 -0.0053331623003467993 -0.10954575273702698 -0.0092822042494409996 0.016132094324991051 0.019983713112267706 -0.0014691989152483497 -0.0012579521142424999
decision_type=2 2 2 2 2 2 2 2 2 2
left_child=6 -2 -3 5 -5 -4 7 -1 -8 -10
right_child=1 2 3 4 -6 -7 8 -9 9 -11
leaf_value=-0.048403625846347324 0.095432169914449014 -0.075488069513103981 0.037425872283074701 -0.092735145483684694 0.047048666016806601 -0.043250563092791447 -0.08737887848656789 0.055090658006917287 -0.08191464018150324 -0.084071608606135578
leaf_weight=4.9789198935031909 5.0840445011854163 6.6258747056126586 12.327851727604864 3.4276501461863509 32.085408583283424 21.640545271337032 3.3330112919211388 3.115086704492569 2.2657667025923729 2.4872101545333845
leaf_count=38 23 39 64 19 133 118 23 12 23 20
internal_value=-0.000546257 0.00864789 0.00285061 0.0103211 0.033557 -0.0139714 -0.0466826 -0.00857247 -0.0848304 -0.0830434
internal_weight=97.3714 81.1914 76.1073 69.4815 35.5131 33.9684 16.18 8.09401 8.08599 4.75298
internal_count=512 396 373 334 152 182 116 50 66 43
is_linear=0
shrinkage=0.1


Tree=56
num_leaves=9
num_cat=0
split_feature=19 4 38 28 13 3 45 25
split_gain=5.47056 5.5235 5.17038 4.62148 3.99621 0.0164318 0.00264334 0.000631692
threshold=0.091007175553595568 0.10989871132191086 -0.071542494735215137 0.040899786256692154 0.076356871641599114 -0.022834812380530995 -1.0000000180025095e-35 -0.011719432236191348
decision_type=2 2 2 2 2 2 2 2
left_child=1 2 -1 4 -4 -2 -3 -5
right_child=5 6 3 7 -6 -7 -8 -9
leaf_value=-0.084288751380026061 -0.093607436269902922 -0.08623304142783067 0.014691552878418843 -0.08045876159813449 0.081299690640190034 -0.0838191468481886 -0.08214700520376797 -0.082931243207922667
leaf_weight=5.1777824424207202 2.949536919593811 2.6673264876008034 52.116923283785582 1.8055359311401842 10.889238797128199 4.0976048782467833 3.8954987227916709 2.4160909056663504
leaf_count=39 20 19 269 22 43 39 38 23
internal_value=-0.00349554 0.00403814 0.0120005 0.0194165 0.0262033 -0.087916 -0.0838077 -0.0818738
internal_weight=86.0155 78.9684 72.4056 67.2278 63.0062 7.04714 6.56283 4.22163
internal_count=512 453 396 357 312 59 57 45
is_linear=0
shrinkage=0.1


Tree=57
num_leaves=15
num_cat=0
split_feature=16 45 37 16 16 42 12 42 14 30 13 37 31 49
split_gain=3.35677 3.97378 3.86589 3.3539 4.02847 3.13194 4.84246 2.72746 2.50463 1.78021 0.55878 0.192893 0.0126967 0.00250508
threshold=0.039487461774289807 0.06489172429998756 -0.036828016619218293 -0.041791690037965942 -0.029788454631190946 -0.0038326330151682493 -0.018184367454536797 0.025575492004623706 0.032473602097504557 -0.0018214024512589499 -0.025243586251734246 0.010295841025276552 -0.017882009263762499 0.014069329124673001
decision_type=2 2 2 2 2 2 2 2 2 2 2 2 2 2
left_child=1 2 7 8 -5 12 -7 9 -4 -1 -8 -3 -2 -14
right_child=5 11 3 4 -6 6 10 -9 -10 -11 -12 -13 13 -15
leaf_value=0.033518108187424699 -0.093435810180484719 -0.087793338970800092 -0.072624556391556419 0.092793084433206385 0.0047998143929653524 0.049228076910478424 -0.03140821284364019 -0.0082715294960637748 0.0080595048018237189 0.10917470233046196 -0.090444132395672172 -0.050182209987276696 -0.08249585422846735 -0.0871406029629819
leaf_weight=5.0603128001093873 2.6534354016184807 3.1650032773613921 8.5588238164782506 6.1558958441019049 33.606143649667501 7.3161378875374803 2.5879141390323648 4.7701711207628241 6.9892526045441619 8.0700986236333847 4.2138651460409129 2.3957558050751686 2.376151371747258 2.2709236592054367
leaf_count=21 15 23 44 23 166 28 20 24 32 27 29 20 24 16
internal_value=0.000362438 0.00990705 0.0160971 0.00302435 0.0184228 -0.0347402 -0.00724198 0.0564901 -0.036355 0.0800175 -0.0679824 -0.0715892 -0.0879169 -0.0847656
internal_weight=100.19 78.7715 73.2107 55.3101 39.762 21.4184 14.1179 17.9006 15.5481 13.1304 6.80178 5.56076 7.30051 4.64708
internal_count=512 380 337 265 189 132 77 72 76 48 49 43 55 40
is_linear=0
shrinkage=0.1


Tree=58
num_leaves=10
num_cat=0
split_feature=35 30 39 28 17 22 25 20 7
split_gain=4.7675 4.02482 7.61471 4.56374 4.12837 4.11541 4.11021 1.46384 1.01633
threshold=-0.10242945300739213 -0.063849501376419746 -0.011411163579049347 0.011617303333037902 -0.16392386027367492 -0.057642051199514543 0.067973137594776259 0.09314663007236601 -0.016031414037210846
decision_type=2 2 2 2 2 2 2 2 2
left_child=-1 2 -2 8 -3 7 -7 -6 -4
right_child=1 4 3 -5 5 6 -8 -9 -10
leaf_value=0.096063653088902162 0.11843095900473254 0.08726664065697208 -0.088741397409109177 0.068763687772569304 -0.082938590537949136 0.003972294538304286 -0.076054441107482718 -0.011874654180760795 -0.013868922831035226
leaf_weight=5.2224712818860999 7.4286929145455387 3.988814413547515 4.4422843381762513 4.5477166175842285 10.982318490743635 53.707034610211849 7.2889260649681082 3.9380257278680793 3.0630583837628338
leaf_count=18 27 14 29 16 70 259 39 23 17
internal_value=0.00293428 -0.00195938 0.0387957 -0.010286 -0.0118959 -0.0171062 -0.00559078 -0.0641822 -0.0581847
internal_weight=104.609 99.3869 19.4818 12.0531 79.9051 75.9163 60.996 14.9203 7.50534
internal_count=512 494 89 62 405 391 298 93 46
is_linear=0
shrinkage=0.1


Tree=59
num_leaves=15
num_cat=0
split_feature=3 38 24 1 48 24 49 7 30 32 11 8 41 33
split_gain=3.6012 3.47473 3.59414 4.56775 4.42911 3.84371 3.64278 3.58134 2.72695 2.27654 0.784977 0.654072 0.00596436 0.00140867
threshold=-0.069441893792626178 0.086575295280658909 -0.0053331623003467993 0.024028855886871904 0.010993540513043052 -0.04146966656478749 0.044466242466716356 -0.067866294700350036 -0.011659405216257298 0.036364476070681606 0.074752405959818663 0.06450774251858242 0.0034050893026176502 1.0000000180025095e-35
decision_type=2 2 2 2 2 2 2 2 2 2 2 2 2 2
left_child=9 2 4 7 6 -6 -2 -4 -5 10 12 -3 -1 -14
right_child=1 11 3 8 5 -7 -8 -9 -10 -11 -12 -13 13 -15
leaf_value=-0.087407233667025602 -0.058462699018487663 -0.088217891393031989 -0.011105037951335845 0.027902773135248127 -0.018057672079961038 0.079270279714285422 0.050130908048435043 0.074505479770737376 -0.08876820612439057 0.017586449042080898 -0.023307773383077247 -0.023449014492324616 -0.080619900962219437 -0.084091121829015042
leaf_weight=3.2900789976119977 16.798833556473259 3.8645397126674643 6.2794404476881054 4.0362069010734558 7.9911332204937962 8.2434127926826459 3.7850606441497794 22.027190558612347 3.9775213003158552 4.2418489083647719 2.8569135889410964 2.6136659979820251 3.1164760328829288 1.8709078952670095
leaf_count=24 106 29 29 18 44 32 14 81 26 23 15 17 38 16
internal_value=-0.000448405 0.00810816 0.0143256 0.0366449 -0.0076918 0.0313625 -0.038494 0.055514 -0.0300055 -0.0447537 -0.0685033 -0.0620865 -0.0841023 -0.0819221
internal_weight=94.9932 79.617 73.1388 36.3204 36.8184 16.2345 20.5839 28.3066 8.01373 15.3762 11.1344 6.47821 8.27746 4.98738
internal_count=512 396 350 154 196 76 120 110 44 116 93 46 78 54
is_linear=0
shrinkage=0.1


Tree=60
num_leaves=18
num_cat=0
split_feature=31 25 48 12 1 38 46 7 40 12 41 18 48 22 10 31 47
split_gain=5.0596 4.69364 4.1024 3.84918 3.87618 4.74579 5.63715 3.0272 1.45792 1.39638 1.37079 1.24065 0.808405 0.0116283 0.00225968 0.000746994 0.000451448
threshold=0.0029112205388855503 0.0062792088484322503 0.0079758430634597529 0.056503296732322808 0.036809503463932906 0.034411870446494006 0.027778384765301003 -0.040420266585024192 0.013232709795444853 -0.0051681022300235488 0.029133405070339152 -0.0084609211042108983 0.04592023274450701 0.086940245221351672 0.027168509528181003 -0.019255121818006097 -0.00037063010037139999
decision_type=2 2 2 2 2 2 2 2 2 2 2 2 2 2 2 2 2
left_child=1 13 8 4 5 6 -2 -4 -3 -6 -9 -7 -5 14 15 -1 -16
right_child=3 2 7 12 9 11 -8 10 -10 -11 -12 -13 -14 -15 16 -17 -18
leaf_value=-0.082846621675044987 -0.047327246075307611 -0.093651852655493056 0.10496777882002231 -0.09111069924622725 0.097832476309164446 0.029211796388743799 0.056078064133414721 -0.055284518453369437 -0.010713264945320556 0.031056830956045629 0.041967627349754441 0.1046084045585875 -0.0182702157230572 -0.090820611137932203 -0.079793612157961477 -0.085038247677711426 -0.081982166031360409
leaf_weight=3.4277236945927152 17.13452293723822 4.5570879727602023 4.1279144585132599 3.4637269601225844 7.8336581401526928 4.0316386707127094 7.614967491477727 2.9240579456090909 3.9621775224804878 5.2172594964504224 2.8737724348902702 4.7582252323627454 2.7202367410063744 2.1193541660904875 2.1406616568565373 2.8468293175101289 1.6839724592864511
leaf_count=32 106 34 16 24 32 23 35 23 25 21 17 19 18 18 30 22 17
internal_value=-0.00371093 -0.0360164 -0.00417345 0.0150596 0.0248988 0.00690605 -0.0155113 0.0395183 -0.0550784 0.0711381 -0.00708019 0.0700263 -0.0590692 -0.0840864 -0.0826731 -0.083841 -0.0807572
internal_weight=83.4378 30.6636 18.445 52.7742 46.5903 33.5394 24.7495 9.92574 8.51927 13.0509 5.79783 8.78986 6.18396 12.2185 10.0992 6.27455 3.82463
internal_count=512 234 115 278 236 183 141 56 59 53 40 42 42 119 101 54 47
is_linear=0
shrinkage=0.1


Tree=61
num_leaves=14
num_cat=0
split_feature=44 45 9 35 47 20 42 43 6 1 33 11 2
split_gain=3.23327 3.9349 4.23855 6.34439 4.42804 5.21416 3.8085 3.33429 3.24241 2.78247 1.66624 0.184957 0.00528728
threshold=-0.044571173122476992 -0.04796334871862059 -0.010997543228902548 -0.012722637593836348 -0.011844724080730798 -0.0030859798889169994 -0.0036396241090858998 0.0075078722690282004 -0.081684954754112679 -0.014305404940765548 -0.028905511398343745 0.024832727515379655 -0.1355193053163378
decision_type=2 2 2 2 2 2 2 2 2 2 2 2 2
left_child=9 7 4 6 10 -6 -4 11 -5 -1 -3 -2 -11
right_child=1 2 3 8 5 -7 -8 -9 -10 12 -12 -13 -14
leaf_value=0.020240690543850828 -0.095003607815655089 0.028037930342264279 -0.039234668583980198 -0.0014861636531713612 -0.063531673185013099 0.042830204103584991 0.071515305857286979 0.01739789519780106 -0.080512825353362447 -0.089929586942924716 0.10182110697174124 -0.063048292682884186 -0.084433569219318619
leaf_weight=3.6624698117375374 5.2296434566378576 4.2471014037728319 4.3167182058095941 9.6075413227081246 6.5754032433032998 15.412546046078205 11.061952553689473 5.4651417061686507 11.296177148818979 2.941270723938942 10.956930555403229 2.7710057236254215 4.323201719671486
leaf_count=21 31 18 21 52 40 67 45 25 73 18 39 23 39
internal_value=0.000441531 0.00688532 0.0159929 -0.00832447 0.0397156 0.0110231 0.0404283 -0.0428092 -0.0441914 -0.0508285 0.0812105 -0.083936 -0.0866588
internal_weight=97.8671 86.9402 73.4744 36.2824 37.192 21.9879 15.3787 13.4658 20.9037 10.9269 15.204 8.00065 7.26447
internal_count=512 434 355 191 164 107 66 79 125 78 57 54 57
is_linear=0
shrinkage=0.1


Tree=62
num_leaves=6
num_cat=0
split_feature=26 38 12 11 2
split_gain=4.64584 4.42095 3.78347 4.28234 3.54505
threshold=-0.13042278896780213 -0.12339894688183244 0.11303054884460412 -0.14834622379052362 0.32797328390313302
decision_type=2 2 2 2 2
left_child=-1 -2 3 -3 -5
right_child=1 2 -4 4 -6
leaf_value=0.1030748854943549 0.098637222083959003 0.058138289063195764 0.052961109188688273 -0.02910340163286498 0.031507513172371618
leaf_weight=4.4284653365612021 4.2080301493406287 7.6968945488333693 9.7123470455408079 65.093717150390148 11.329370796680449
leaf_count=16 15 31 36 374 40
internal_value=0.00288775 -0.00163768 -0.00613464 -0.0129577 -0.0201181
internal_weight=102.469 98.0404 93.8323 84.12 76.4231
internal_count=512 496 481 445 414
is_linear=0
shrinkage=0.1


Tree=63
num_leaves=13
num_cat=0
split_feature=3 43 7 28 7 1 15 27 26 43 48 33
split_gain=3.28409 3.46491 4.5817 4.77293 4.60708 4.05512 5.47365 1.85454 1.56469 1.08388 0.00360652 0.000531424
threshold=-0.10047429195549624 0.080004288366128162 -0.014116145599088749 0.055211275007337905 -0.12401265783378147 0.028680059618738204 0.0061105833475673509 0.043333324436909952 -0.035443561449842793 -0.010219090975712197 -0.0011711732502898999 -0.0022430277293592998
decision_type=2 2 2 2 2 2 2 2 2 2 2 2
left_child=8 2 3 4 -2 6 -4 -3 -1 -7 -10 -12
right_child=1 7 5 -5 -6 9 -8 -9 10 -11 11 -13
leaf_value=-0.0010205851794151727 -0.037276467787467953 -0.094788358735320252 -0.027317910739593873 -0.043676707009903892 0.070374706118399744 -0.086939465909245228 0.06464240508541215 0.005672581178406003 -0.085889646871726746 -0.016566417307634262 -0.080101731088504519 -0.082473182977644457
leaf_weight=3.6006136164069176 4.6904203742742565 4.879904516041278 16.578472718596462 5.9789238795638076 26.080829210579395 7.0878664292395115 10.618047371506689 2.9474272057414055 2.6950360611081123 3.1663188114762288 2.1977417618036275 1.6577295325696448
leaf_count=19 25 31 89 33 116 55 42 19 20 17 29 17
internal_value=-0.00031986 0.00632011 0.0129953 0.0380801 0.0539656 -0.0116202 0.00858517 -0.0569592 -0.0539755 -0.0652095 -0.0830832 -0.0811214
internal_weight=92.1793 82.0282 74.2009 36.7502 30.7712 37.4507 27.1965 7.82733 10.1511 10.2542 6.55051 3.85547
internal_count=512 427 377 174 141 203 131 50 85 72 66 46
is_linear=0
shrinkage=0.1


Tree=64
num_leaves=13
num_cat=0
split_feature=19 4 39 47 48 47 9 28 2 3 45 15
split_gain=4.57755 4.6197 4.37597 6.22228 4.45697 3.32416 5.58214 3.87482 0.208945 0.0190991 0.0022511 0.0018976
